#ifndef NEURAL_NET_DAMAGE_H 
#define NEURAL_NET_DAMAGE_H 
#include <Arduino.h> 
PROGMEM const float percieve_kernel_back_damage[28][84]  = {{-0.0018275768,-0.02306151,0.027152978,0.028947309,-0.020030888,-0.005044128,0.02448902,-0.03587697,0.00020028303,-0.010631702,-0.009312956,0.03043931,-0.018963888,0.010311028,0.0054066796,-0.013969953,0.029161666,-0.014011562,-0.014171771,0.028899683,-0.010849874,-0.03421336,0.006828414,-0.011019035,-0.036053173,-0.016916865,-0.024474924,-0.02817969,0.028960593,-0.020391371,0.023987092,-0.01316126,0.0047334,0.03202654,0.033057127,0.035970032,-0.021981392,0.024856463,-0.0006470406,0.023804637,-0.018560838,0.023981635,-0.031714212,-0.005396807,0.024487048,-0.01702515,-0.011469479,-0.016245177,-0.036123388,0.034174837,0.014027712,0.01863679,-0.0038001707,-0.033959556,-0.026713552,-0.0029998666,0.012365942,-0.012408383,-0.022695635,-0.024392687,0.002197772,-0.03296503,0.020972498,0.0068747094,-0.0040001804,-0.026361207,-0.026855672,-0.022126,-0.007146521,0.0063451417,0.028704377,-0.029020147,-0.019106846,0.009092837,0.029934417,0.018276712,0.031617593,0.022616267,-0.01077476,-0.01702868,0.0052272766,0.025308171,-0.022765463,0.022902997,},
{0.030434424,-0.011893361,-0.0044426587,0.012985585,-0.03500584,-0.018106557,0.0054436666,-0.022639709,0.0043176464,-0.00093958084,-0.027883526,0.0074475375,-0.0023093573,0.014226859,-0.009251169,0.033606287,-0.014614965,-0.026042271,0.004192148,0.020562414,-0.027202576,-0.02790294,0.023093503,-0.03511029,0.032183044,0.014771557,0.030340342,-0.023528144,0.006600639,0.013303151,0.024173362,0.009570681,-0.02479604,-0.00095626427,-0.011785557,0.036068507,-0.029096419,-0.023196457,0.0055666543,-0.012585652,-0.008282401,0.015126691,-0.015988622,-0.006820766,-0.021198383,0.031385742,0.02035771,0.0048355423,0.035863113,-0.006850816,0.0021999397,-0.02181663,0.012483042,-0.029687405,-0.0329857,-0.013748278,0.0075466014,0.028928323,-0.022347294,0.018317983,-0.0037864659,-0.0099725,0.031727497,-0.018418144,0.0051309485,-0.03184474,0.014378406,0.016580382,0.018615583,-0.022842946,0.0067390613,0.014121031,0.03275154,-0.030468147,-0.015579692,0.01668671,0.007920221,-0.030000161,-0.015080686,0.028020188,-0.03164784,-0.032243345,0.027922628,0.01902201,},
{-0.012459959,0.005893611,-0.027782714,0.032388605,-0.027206544,-0.0033774974,-0.01536028,-0.017658846,-0.015689297,-0.010875505,0.029332627,-0.034521535,-0.02877205,-0.0043276222,0.01346248,-0.015473183,-0.0008913733,-0.006452699,0.017871343,0.00334841,0.028383296,-0.0037101982,0.005993603,-0.01515238,-0.032608837,0.024492033,0.0015135015,0.029499356,-0.03370244,0.000968521,-0.0026882496,-0.016638992,-0.03257446,-0.013972863,-0.024564268,0.010009239,-0.024067726,0.022698704,0.027690874,0.024145091,0.022060677,-0.01978363,0.02520768,-0.02029836,-0.017242022,-0.018969893,0.011295122,-0.035928976,0.033346288,0.023102617,-0.013810208,-0.016847668,0.02182498,-0.005518525,0.02429734,0.00894687,-0.021823553,-0.019306378,0.00031329913,-0.028539242,0.0022846358,0.017230177,-0.03488442,0.020606395,0.01765334,0.032379977,0.0194972,-0.014412709,0.0072576683,0.029210176,-0.0022742995,0.033044685,-0.0037749808,0.01720069,-0.0040568514,0.023073902,0.020728802,0.011414199,0.03076067,0.013286298,0.012223634,-0.006941937,-0.032511745,-0.029572416,},
{-0.010655214,0.0352969,-0.00671698,0.033841558,0.024178192,0.015307754,-0.023165192,-0.023467097,0.01706001,-0.011215681,0.021103732,-0.020302534,0.008903869,0.005005489,-0.011099534,0.017841348,-0.001760531,0.010787969,-0.028110005,-0.024030661,-0.02843521,0.017105784,-0.027310079,-0.00972769,-0.01187203,-0.02995671,0.024322025,0.023729831,0.0009240681,-0.016914697,-0.024626827,-0.03340642,0.022980409,-0.029476251,0.03213025,-0.000751069,0.020531893,0.0074912184,0.01641351,-0.0004887305,-0.028186398,0.031328436,-0.0269678,0.034058984,0.020039467,-0.0001854206,-0.025386494,-0.015818125,0.021016639,0.029080676,-0.018449873,0.025733862,-0.029451024,0.02380158,-0.006987435,-0.0348231,-0.004206876,-0.022766557,0.02773694,0.027381511,0.015967298,-0.012007812,-0.020870702,-0.0145947,0.013256604,0.0339461,0.011734639,-0.011497265,-0.0006728461,-0.0025922204,-0.013748638,0.011152061,-0.032597646,0.03098701,0.019633612,-0.019751633,-0.00496571,0.0054229596,0.030350305,-0.0304534,0.016587961,0.028008386,0.009923751,-0.00021557903,},
{0.032887787,-0.025480624,0.02939467,0.01061892,-0.029950932,0.03607471,0.0007667985,-0.00030493573,-0.008739186,-0.013429971,-0.017313248,-0.019581502,-0.0314888,0.0066768583,0.02265863,-0.023952845,0.010836637,0.005823916,0.024875544,-0.017100109,-0.026467992,-0.021005549,0.0068783644,0.018403018,-0.024908507,-0.012885117,0.018316016,0.035713814,0.022692056,-0.01152229,0.018814795,-0.022249779,-0.0072273975,-0.030516123,-0.0024398935,0.004731995,-0.02335046,-0.0019127539,-0.01352581,0.0036425933,-0.019532064,0.011151635,-0.014740511,-0.011945935,-0.021903828,0.026974706,0.01839183,0.002737576,0.027568817,-0.018480524,0.031728502,-0.020773238,0.016462555,0.031145813,-0.020242544,0.025859218,-0.015581929,-0.008955464,-0.023233049,-0.0034635763,-0.01566282,-0.015450764,-0.0032476417,0.0057919626,0.021090824,0.016485043,0.03305193,-0.005904541,0.013827277,-0.014351377,-0.030943545,0.0318592,0.011537231,0.02934018,-0.03589903,0.026381513,0.0037629234,-0.012852821,0.005626087,0.0124488985,-0.011606154,0.020841667,-0.008282917,-0.006282549,},
{-0.0013985864,0.023529781,0.008824688,-0.021937659,-0.0029567056,-0.016030924,-0.02395086,0.028950356,0.02954753,-0.016513228,-0.02491707,-0.0112909125,0.0055005495,0.011358457,-0.021715853,0.026684413,0.011952113,-0.011843493,0.01870829,-0.01104234,0.0030393119,-0.0014501454,-0.026501514,-0.015073285,0.029290076,-0.028816734,0.014660641,0.020700447,0.032809336,0.02239548,0.0347435,0.011367553,0.023433419,-0.03222581,0.008059664,0.030505922,-0.028434806,-0.009342663,-0.0041056266,0.025769366,0.004025947,0.020463727,-0.025768138,-0.027212601,0.01779446,-0.007849617,0.0005180825,-0.012561919,0.02008672,-0.02042515,-0.025854344,-0.032258175,-0.020130714,0.021709086,0.020892575,0.008947109,0.035639755,-0.035519548,-0.006624909,0.02973684,-0.013330903,0.0072553013,-0.016368914,-0.013279691,0.026112508,-0.026305892,0.026575401,0.02602858,-0.016822409,0.031018967,0.02964906,-0.004649207,0.005010527,-0.029186994,-0.019670604,-0.012942156,-0.026940217,0.03583849,-0.028740987,-0.005006512,0.034416165,-0.009876735,-0.0062459735,-0.0019349435,},
{0.028779538,-0.026496824,-0.0011258338,0.032426506,-0.035756346,-0.0040603154,0.015515894,0.020874621,-0.025893468,-0.006258872,-0.01646291,-0.016319541,0.03135197,-0.0069553773,0.030165387,-0.008080747,-0.020182027,0.020790355,-0.010751135,0.035497926,0.0230512,-0.005792496,0.023793356,-0.0057417997,-0.03251481,-0.027078336,-0.028313613,0.01259764,0.022519652,-0.007901392,-0.03157711,0.03216485,-0.012981583,0.033106074,-0.029271763,-0.03582993,-0.016800722,-0.010875662,0.0035304227,-0.034627393,-0.021747494,0.011478799,-0.015336833,0.021684889,0.0043909093,0.014759123,0.010824679,0.012512814,-0.00694169,-0.011457277,0.0074394993,0.021476798,-0.036059592,-0.022417873,-0.020921793,-0.011968458,0.007813839,-0.007861669,-0.019727746,0.03184642,-0.008840596,-0.002596773,-0.023615463,0.03293722,-0.0017611163,0.017305594,-0.025020912,-0.022427473,-0.024018204,0.018857041,-0.014331751,-0.036281414,0.00031511573,0.0041346797,0.010852635,-0.029908407,0.007193974,-0.009517288,-0.013086319,0.035069276,-0.016099934,-0.0009128909,0.003616081,0.013659962,},
{-0.023336636,-0.020369263,0.015876407,0.005677212,-0.02779655,0.009691869,0.012882854,-0.0028774857,-0.0147153465,0.0002914217,-0.0039031454,0.024859145,0.002883794,-0.017441135,0.01596175,0.013025546,-0.027488835,-0.008581223,-0.004609952,-0.020145906,-0.009418518,-0.0073837694,-0.03189542,0.03445906,0.0047634454,-0.016328646,-0.008677174,-0.03123044,-0.0032714356,-0.014493698,-0.0136282,0.029696865,-0.029016323,-0.0076027648,-0.029976862,0.026872724,0.0021364796,-0.01708209,0.0015931726,0.018446898,-0.00168905,-0.025050035,-0.0072436905,-0.016050013,-0.033647645,0.030442307,-0.030042304,0.026093647,-0.007824206,0.024332142,-0.014781963,0.013881099,-0.002298076,0.026377998,0.021057649,0.0022516982,0.020698396,0.011782686,-0.034913987,0.03450378,0.0073454254,-0.012139558,0.0039604446,0.03534995,0.0018358057,-0.03599362,-0.007127765,-0.006683518,-0.03520777,-0.015105264,0.0004470307,-0.0071889274,0.02668569,0.026269503,-0.030255701,-0.014710708,-0.0042486363,-0.018445197,0.006148713,-0.03180282,-0.007045454,-0.011226698,-0.0068506165,-0.0038240077,},
{-0.020185404,0.004470827,-0.010179416,0.035535157,-0.0145748565,-0.0068382947,0.022653414,0.0019304128,-0.007274148,0.03148695,0.026723143,-0.035755094,0.0014978413,0.017408587,-0.014460366,-0.018594624,-0.006775511,-0.027723234,-0.012604968,0.0023257458,0.0056511858,0.0016304977,-0.013475166,-0.021263381,-0.01908587,0.0020368258,-0.012084748,-0.0055486965,-0.031149061,0.015069119,0.0012086655,-0.032649603,-0.014512436,-0.02454315,0.022684019,0.028613893,-0.028534824,0.018135654,-0.027864514,-0.013626084,-0.027116397,-0.035262868,0.013879933,-0.00031907414,0.03540397,-0.03448268,-0.021902315,0.005292354,-0.020598613,-0.016935885,-0.03094394,0.02413253,-0.033094764,0.0044882,-0.027378213,-0.010905668,-0.004296519,-0.02298863,3.303727e-06,0.003997835,0.0066449833,0.01846706,-0.023787932,0.010681951,0.008350925,0.029941922,0.017454632,0.017323505,-0.019290429,0.031706024,-0.0013170859,0.014539855,-0.026487766,-0.012272471,0.022127485,-0.017408006,0.015999235,-0.0070348014,0.003080162,-0.03137214,0.017341893,-0.0064634127,0.016753057,0.01215726,},
{0.015018015,0.0037565024,0.009897528,0.010662636,-0.014772022,-0.018509941,0.0108422255,0.03055063,0.029945455,-0.0021918365,0.0041675693,0.031990644,-0.003999773,0.021656482,0.016087148,0.033470035,0.00471379,-0.033518393,-0.024920829,0.007911113,-0.0029772087,0.030070156,0.03339768,-0.004386652,0.01349361,0.0103487,-0.014380947,-0.01229391,0.010679983,-0.0219073,-0.033082914,-0.0059003094,-0.012320123,0.026963616,-0.0021288749,-0.025634551,-0.015699156,0.027295072,-0.024075773,-0.026714705,0.014954065,0.0066351457,-0.01166413,-0.013572765,0.016504532,0.022018565,0.0020082672,-0.0050515463,0.01719342,0.02380207,-0.035299197,0.020003427,0.012872773,0.030881008,0.00043656022,0.035998505,0.011720163,0.008527262,0.003064467,0.007591874,0.008932077,-0.026311286,0.03566041,0.036031276,-0.024658378,0.025004553,-0.022309886,0.017366922,0.00436529,0.01664459,-0.023441799,0.019423414,-0.021337412,0.012161518,-0.030335793,-0.014374564,-0.0022034429,-0.025253227,0.021393696,-0.022227377,0.015476163,0.032308772,0.023922302,0.017660975,},
{-0.021202601,-0.03402484,0.034337863,0.02476712,0.029841257,-0.022230776,0.03477653,-0.009491339,0.005070276,0.013185097,0.03359411,-0.029984757,0.02061854,0.011291094,-0.005096814,0.018215282,-0.02177884,0.023989681,-0.009126268,0.007047574,-0.020959465,0.007538533,-0.03415941,0.012908494,0.016461285,0.03162899,-0.027809612,-0.004562226,0.003906341,-0.033034354,-0.02689298,0.029536478,-0.019717736,0.015997661,-0.03457356,-0.014753613,-0.027324582,0.0096935555,0.029289005,-0.03610663,0.023613706,-0.0019744018,0.024166318,0.0068541975,0.016743757,-0.0112526985,-0.022793163,0.02483899,0.0037912219,0.028364656,0.018053256,-0.02151753,-0.0353091,0.000610162,-0.03445361,-0.022106076,-0.035525043,-0.025113242,0.030507172,-0.008474025,0.012236221,0.01810805,0.0072565456,0.031746857,0.020443585,-0.03585685,0.009620874,0.029452914,0.01883477,0.0067596165,-0.034029398,-0.015222785,-0.030835388,0.027134096,0.025554568,-0.021200012,-0.019575255,0.0016760302,-0.0030619698,0.028986841,0.0043820213,-0.02278937,0.032590605,0.03245977,},
{-0.026034532,-0.008556762,0.027227545,-0.01614864,0.0054651797,-0.016935742,-0.033745915,-0.018836487,0.03003653,-0.004351017,-0.013538066,0.008194587,0.031401623,-0.021809412,-0.026834683,0.012397301,-0.010689413,0.028715173,-0.016696243,-0.005509537,-0.024995608,-0.0030564289,-0.0019789282,-0.02774124,-0.0074440083,-0.021935273,0.0132290255,0.035810467,-0.030742181,0.018281695,0.020971352,0.02878576,0.009665275,0.01327343,0.034373883,-0.0011930747,0.007959962,0.009769598,-0.0101143,-0.018000478,-0.027878007,0.029648574,-0.009672706,-0.012872729,-0.033084728,-0.035342935,0.005184779,-0.031304505,-0.013605698,-0.0040468965,-0.013677439,-0.020703895,-0.0068898103,0.0031982767,-0.014302112,0.005808182,-0.0062065935,0.017820438,0.00065741566,-0.031380147,0.013442779,0.004872278,-0.009588625,-0.006534603,0.020044025,0.035830673,-0.0059193424,0.009639257,-0.00019418719,-0.004964522,-0.012490737,-0.022291282,-0.021766372,0.018051747,-0.03419752,0.019942472,0.008377649,0.015549785,-0.023400815,0.0095358575,0.012610882,0.032040276,-0.024601351,-0.009726784,},
{-0.0070328373,0.024974937,0.034810625,0.012875106,-0.026373124,0.014709181,0.034433413,0.029285157,0.010480701,-0.036116827,0.033889987,0.012612629,-0.023358872,0.030195251,0.015084085,0.011728851,-0.014984713,-0.03626062,0.010273373,-0.012136537,0.016364006,-0.0022091095,0.01843657,0.027848734,0.03186628,0.021399511,-0.008817453,0.023859205,-0.032286614,-0.008786133,0.005631788,-0.020098306,0.015043938,0.031177532,0.02589826,0.01109591,0.02209492,0.00025076242,-0.02459969,0.025228526,-0.022592485,0.010389819,-0.0067981686,-0.009435496,-0.030650362,-0.00012025653,0.0033731705,-0.03501971,-0.010435745,-0.0185206,-0.0070981793,-0.0010651008,-0.0064469418,-0.0068753595,-0.0039438307,0.027817208,0.021105653,-0.030091053,0.022071902,-0.0057175895,0.0057814745,0.028211232,0.013639368,0.008696789,-0.019916112,-0.023783254,-0.029310329,0.009806455,0.0037360862,-0.03433323,0.029191876,-0.008387261,-0.010246366,0.016117444,-0.0073004523,0.03063805,0.0043933415,-0.0053547346,-0.003163037,-0.0360909,0.013132996,-0.02970614,0.014237442,0.00640284,},
{0.012045913,-0.03568503,0.00017572186,0.02486281,-0.02188107,0.033832163,0.0039976225,-0.022166781,-0.0028679213,0.022369744,-0.034152642,-0.013362475,0.019889997,-0.036366582,-0.003698011,0.022745017,0.0056626056,0.018677747,0.0084033115,-0.034468453,-0.035365216,0.03254593,-0.02869714,-0.02604462,0.006874848,-0.00024760177,0.022562636,-0.0047523812,0.012271699,0.013924602,-0.027829692,0.008593216,-0.024646953,0.03038333,-0.032718435,0.011810842,0.011135369,0.021628119,-0.02151785,0.019747144,-0.028517816,0.02642917,0.03167564,0.030634886,-0.020307885,0.011041906,0.03349101,-0.025432408,0.017647643,-0.024018494,-0.00041964705,0.02281354,0.026308069,0.02542936,-0.000317496,0.023062283,-0.029319823,-0.008349801,-0.031808667,0.001637413,0.026340624,-0.016320515,0.015616107,-0.024113532,0.02415149,-0.025599949,-0.027086118,0.02052785,-0.006259084,-0.013331298,-0.019709788,0.01927703,-0.01478867,0.012970181,0.005680529,0.026353007,-0.0037429277,-0.014741863,-0.0050059054,0.034363847,-0.03154589,-0.0014210925,0.014594844,0.013490605,},
{-0.026807921,0.009693655,-0.0015572738,-0.019734094,0.032096066,0.00858,-0.012133371,-0.009956163,0.008916439,-0.012614961,-0.014097346,0.007740377,-0.03348904,-0.008339964,-0.0018548217,-0.0115010245,0.030361261,0.01376151,-0.035067175,-0.035037648,-0.012619583,0.024300221,-0.017847922,0.032231644,-0.019541642,0.023722088,0.003702199,0.023837922,0.029053306,-0.027001817,0.029890934,-0.033739135,0.009158933,-0.006321964,-0.022116927,0.009098122,0.032884836,-0.03477389,0.036362134,-0.026609471,0.014621862,-0.019824725,-0.015383046,0.033325184,0.003331215,-0.017981641,0.028751265,-0.029616695,0.02015022,-0.03510714,-0.024334555,-0.0036215829,0.0019158192,-0.0060044765,0.031716898,0.012272969,-0.01777348,-0.021845736,-0.0043139653,0.012542778,0.032344073,-0.014896306,-0.019904682,0.0025833065,0.0038564338,-0.027929476,-0.010220323,0.02702124,-0.02201521,0.0039239563,-0.014150799,-0.02933567,0.00061686046,-0.03209606,0.026616361,0.010165092,-0.020905543,-0.005333802,-0.009265441,0.015250247,-0.018618522,0.0125151165,-0.0016471551,-0.026960673,},
{0.031967882,-0.0293161,0.030004775,-0.006117553,-0.0002743134,0.006651452,-0.014712603,-0.008419171,-0.014551725,-0.028326312,-0.0046724672,0.023010733,0.03509158,-0.016382884,-0.02614632,0.024940377,-0.031485986,-0.03143685,-0.0040333043,-0.0058888504,0.029920526,-0.030345786,0.011467012,-0.028108079,-0.018302029,0.009014341,0.024289506,-0.03490523,0.028535536,-0.0029138438,-0.03262636,0.016381778,0.033750452,0.025491094,0.009620666,0.017574904,0.015827445,0.007247107,-0.02007209,0.02365799,0.022173371,-0.021952296,-0.001326945,0.036092967,0.02713168,-0.022688506,0.014139025,-0.02042485,-0.033733834,0.018583478,-0.010131014,0.012969982,0.020460732,-0.016395153,-0.011215234,0.03152673,-0.018456884,-0.029238505,0.0099794585,0.017659718,0.0037294526,0.015152913,0.03141837,0.027069535,0.01913648,0.029584369,0.0280966,0.025955524,-0.0067525017,-0.005939139,0.0133258,0.032289807,0.00912384,0.011162596,-0.0052606305,-0.031461593,-0.016234234,-0.00717136,-0.026548114,-0.018217934,-0.03068517,0.00497974,0.017184865,-0.03588339,},
{0.011944296,-0.011437378,0.0073072505,-0.015339088,0.01897673,0.03154078,0.027880397,-0.007884631,0.013712405,-0.008373106,-0.034071248,-0.018975416,-0.014460838,-0.028425965,-0.004375834,-0.010206318,-0.01225652,-0.01246318,-0.03136118,0.01718213,-0.00097566174,-0.024994759,0.027441269,-0.026286395,0.010426992,-0.0110291075,-0.010828208,-0.017320648,-0.01841204,-0.0054169507,0.03538248,-0.03614493,-0.018680291,-0.006550463,-0.03209159,0.0032185412,0.014041855,0.019705817,-0.025119655,-0.0139665585,-0.016515102,0.029165901,0.027059566,0.025435481,0.0039483095,-0.02103509,-0.029007794,0.03217952,0.021044044,0.033307105,-0.00392315,0.019532466,0.013743388,-0.024304466,0.0046918476,0.019577254,-0.031872123,0.034713853,0.02625605,0.029925885,0.024269864,0.009510641,0.027706286,-0.0077499887,-0.009541494,0.029102558,-0.0312248,-0.0016578857,0.014413698,0.025342718,0.018075246,-0.010084528,0.019617584,0.0036585266,0.0038507064,-0.007187718,0.03625391,0.022781314,-0.014096796,-0.0025805405,-0.013475712,-0.00047853315,0.025011465,0.026621195,},
{0.01464263,0.017085642,0.027803825,0.0070111766,-0.029459994,-0.0121554695,0.023431692,0.021907374,-0.0034165871,0.027252533,-0.032783527,0.016669419,-0.031267352,0.019474713,-0.022224732,0.0001305059,-0.02857114,0.027063178,-0.0017285864,-0.0315201,0.036073457,-0.03065499,-0.028628213,-0.019528015,-0.027863612,-0.0019072434,0.029218566,-0.00081535726,-0.03310344,-0.0017076888,0.015369975,-0.022247268,-0.02569351,0.031813063,0.010958363,-0.0117882835,-0.005198536,-0.0043434515,-0.024495889,0.008411774,0.021587884,0.003983116,0.02988679,-0.025877539,0.015651785,0.033268612,-0.036115978,0.01902456,0.026459893,-0.01248384,0.028551616,0.009156952,0.018181343,-0.008233521,-0.033232138,0.035483252,0.005854738,0.02730517,0.006395695,-0.032977276,-0.008721098,0.030488702,0.0025513617,-0.031528737,-0.0043246914,0.014707556,-0.022728987,-0.0044905585,0.008449,0.012763577,-0.0033492856,-0.022309056,-0.032794327,0.009990267,0.023716945,-0.004830396,0.0048514972,-0.0053993436,-0.012188559,0.016748514,-0.009398614,-0.00979804,-0.033422012,-0.02619217,},
{0.03452399,0.014714133,-0.022716358,0.014469223,0.012695135,-0.031246504,0.015337081,-0.012158687,-0.015182742,0.0046492326,0.020502444,0.021832637,-0.024526207,0.026247965,-0.0043613315,-0.02739496,0.021095317,-0.0025682317,-0.03575227,0.0050382838,0.032488503,0.021060947,-0.01593404,0.017910324,0.028447293,0.02116087,0.019511804,0.008261411,-0.027876534,0.011156439,0.035567164,0.012066906,-0.035099447,0.033750568,-0.033779066,0.019375054,-0.014899328,-0.009835395,0.007723624,-0.021092165,-0.019447641,0.015951907,0.022487191,-0.017928984,0.012379052,-0.023387648,0.00086160074,-0.02537275,0.028628912,-0.016351476,0.024502609,-0.007387862,-0.009990839,-0.014015967,0.005357644,-0.010482436,-0.03447767,-0.009545581,0.009932256,-0.018208545,0.0024777476,0.01277005,-0.009619656,-0.031379826,0.03359487,-0.035391856,-0.011639984,0.0018337202,0.02372119,-0.021751653,-0.0036746203,-0.03259158,-0.023845764,-0.016465502,0.028970882,-0.013911839,-0.018422801,0.023404809,0.008936721,0.0108026285,-0.014408573,-0.033782065,-0.028876599,0.004284223,},
{-0.022926543,-0.034932647,0.023501245,-0.0025563694,0.01712737,0.010924958,0.031397894,0.028562823,-0.029999165,0.014170293,-0.03273216,0.008348631,-0.011043184,-0.004767417,0.02142931,0.010413803,0.017489215,-0.024428928,-0.020429278,-0.0016928177,-0.026229404,-0.019824976,-0.010213338,-0.010364915,-0.0045422,-0.020002987,-0.009642664,-0.035982892,-0.016427219,-0.014404601,-0.015032825,0.02323405,-0.00941674,0.030010602,0.009818383,0.030026097,-0.032747842,-0.022033432,-0.02670727,-0.007711506,-0.020510297,-0.017160574,-0.022250377,-0.0341163,-0.0020687748,-0.0074437046,-0.00062962447,-0.034649216,0.009270843,-0.034283537,0.030938957,0.016370995,-0.027763976,0.010216997,-0.034879632,-0.004296033,0.026087144,-0.031088714,-0.020168895,-0.0055467845,-0.012355631,0.019283803,-0.029560424,0.021668209,-0.0027693992,0.01981658,-0.0042292434,-0.033507522,-0.008903293,-0.007485968,-0.033139218,-0.013139581,-0.012954668,0.027955944,-0.018975064,-0.027673185,0.023374502,-0.030564358,0.013189077,0.020104619,0.016314685,-0.00985931,-0.014329522,0.0031520547,},
{-0.011005231,-0.005777807,-0.02205188,0.033503074,0.010392957,-0.027360566,-0.015360094,0.017786296,-0.029915318,0.019173076,-0.030188965,0.024776882,0.006289954,-0.019979909,-0.0021061997,0.03427789,0.024886396,0.02107396,0.021552563,0.033091765,0.0014491352,-0.007669195,0.029830402,0.018886514,-0.0005543801,0.022252444,-0.031386293,-0.028205445,0.0075008133,0.018209008,0.008308193,-0.0057330723,0.026868839,-0.008588234,-0.020366948,-0.003732843,-0.032404996,-0.00043023893,-0.016756669,-0.020199243,0.03291888,-0.034629457,0.020030584,-0.018341023,0.0018308414,-0.008657153,0.026385216,0.03416743,0.02166902,-0.024928745,-0.017184896,0.017916437,-0.019496642,0.015070675,-0.01743704,-0.006272876,0.008417944,0.016508633,0.009602777,-0.0034391019,-0.01813444,0.010152024,-0.017989205,0.016109848,0.022238506,0.019383969,-0.034258433,0.021665968,0.014311204,0.008254111,-0.034268804,0.021426609,-0.026906902,0.022796601,0.020167064,0.023944613,0.011294524,0.03155374,0.02736342,0.002258401,-0.0019101353,0.012307571,-0.026590819,-0.004292868,},
{0.0065208506,0.011993414,-0.006890937,-0.029077746,0.023674062,-0.023587514,-0.006879478,-0.015889015,0.0005847901,-0.023950765,0.030516358,0.021589983,-0.023497954,-0.031764485,0.01649835,0.0016605305,0.03396054,-0.029613608,-0.009961665,-0.019949574,-0.008334267,-0.030822633,0.028070902,-0.0057743946,0.009269244,-0.020189025,0.028360173,0.01602427,0.0046146996,0.02499061,-0.019988993,-0.01984854,0.015647206,0.025339955,-0.03194506,-0.020383064,0.029526224,0.014466501,0.011041385,0.013470115,-0.014250943,-0.0048549483,-0.011759074,0.0064105745,-0.024166435,0.0037941658,-0.026880862,-0.017518606,0.0077977283,-0.035115294,0.034403797,0.030499129,-0.00017876113,0.013030147,0.0029582405,-0.0060792696,0.019158717,0.0023263833,1.3353648e-06,0.0067278063,-0.00031521547,-0.020205967,0.031098993,-0.013215745,0.005128919,-0.035453387,-0.011675194,0.023468316,-0.00016978642,-0.001979405,-0.025334897,0.0066362945,0.018518873,-0.012734073,0.03553349,0.018936595,0.0055379746,-0.01889894,0.025318576,0.025745014,-0.0011462112,0.00912117,-0.0133978445,-0.01160285,},
{0.020601705,0.0035804035,0.02167358,-0.027230317,-0.020908345,0.020328965,0.026655987,0.011044884,0.020354362,0.007523831,-0.024803048,-0.021556482,-0.0034771122,0.0089485,-0.0011403149,-0.023883471,0.026311347,0.0022707053,-0.016665483,0.012614159,0.034450844,0.0012679895,-0.0134967575,-0.0021146238,0.008362167,-0.034212533,0.005163669,-0.027497293,0.026604429,0.004798269,0.021844894,0.023878165,0.035737533,-0.016636616,0.025993625,-0.02304867,0.016023813,0.022793949,-0.009083386,-0.02753536,-0.015132419,-0.02043181,-0.029914416,-0.0073681003,-0.00085789384,-0.020033315,-0.018475518,-0.022092443,-0.022675568,0.022521647,0.01985753,0.030034374,0.03187745,-0.00825431,0.022984259,0.009156414,0.006455253,0.008079052,0.022138977,0.035500783,0.02153087,-0.012824834,0.016324362,-0.028443092,-0.015375047,0.01751294,-0.0014854459,0.01777579,0.03544753,0.009488508,-0.018851778,-0.009995509,-0.015703728,0.03188503,-0.018160505,-0.036210787,0.03428279,-0.0025703735,0.029772902,-0.031506713,0.017554337,-0.028689368,-0.033148643,0.012680364,},
{0.006714886,0.015666915,0.02891409,-0.016772311,0.017948898,0.03627412,-0.034808874,-0.03505408,0.02064529,-0.009871888,0.02812557,-0.027432667,0.0059022387,0.010422882,0.0042566615,-0.0040274686,0.0254873,-0.03440991,0.02819091,0.0022339309,0.03269522,0.0343508,0.027815983,-0.011618471,0.026638225,0.034154613,0.01834107,-0.024650434,-0.034704905,0.007088593,-0.015873745,-0.023718832,0.028498193,-0.02528198,-0.020027466,-0.0053312965,0.0036616265,-0.034667656,0.027416002,-0.015809488,0.009522451,-0.008170022,0.01250113,-0.03526037,-0.026511712,0.00041104088,-0.011146628,-0.034951165,-0.022102876,-0.017079242,-0.010792696,-0.028391402,-0.008134427,-0.029649606,0.0060575833,-0.031124603,-0.03063099,0.033638045,0.0057979412,0.010469103,-0.0051753144,-0.03147209,0.010721327,0.034520004,-0.015434167,-0.03281224,0.00023761255,-0.027825221,0.011432201,-0.031998243,0.013678531,-0.0016258326,-0.0357142,0.009728735,0.023658102,0.016303135,-0.018618358,0.034644835,-0.0012207228,0.035809904,-0.030420134,-0.010518677,-0.033736255,0.012535577,},
{0.006491646,0.0071155736,-0.034953028,0.0063074566,0.002206517,-0.025279175,-0.0136667,-0.029146938,-0.0011016065,0.018981382,0.007591163,-0.0041190237,-0.0043843538,-0.00044944562,0.008833703,-0.0320424,-0.022482995,0.015750436,-0.023558982,-0.032231882,-0.019829296,0.0017326141,0.0031129867,-0.03578297,-0.02078031,-0.00031120935,-0.010440359,0.020043999,-0.03138942,0.013261113,-0.01043601,-0.008177856,0.024367668,0.015377306,0.012395749,0.0121555,0.035628475,-0.010143578,0.032916203,0.005871165,-0.028593922,0.03522488,-0.0077874833,-0.03134739,-0.015991535,-0.024575802,-0.012445985,-0.020023275,0.0035295773,-0.017762516,0.028624082,-0.031562258,0.02646089,-0.0070970217,0.016009722,-0.013813823,0.0038199758,-0.020569928,0.016109204,0.007768437,-0.0060897316,-0.03284261,0.030268947,-0.022829449,0.0022598708,0.012780139,0.024378197,-0.004619508,-0.017473439,-0.023630962,0.023559863,0.03280674,0.033722613,0.019717662,0.028585764,0.006718233,0.024612386,0.02545252,-0.0002296307,-0.0037652864,-0.026596095,-0.033650156,-0.026825363,0.031715885,},
{0.012488028,-0.013523239,0.022626424,0.0011661246,0.010866691,0.022480536,-0.016649362,0.02876703,0.03599386,0.023011418,0.016485464,-0.029741313,-0.023779022,-0.0038057591,0.010848811,-0.00021211055,-0.014603553,0.0037300726,-0.021084182,0.014471894,-0.004138352,-0.019548904,-0.022765476,-0.005761618,-0.0018408827,-0.025302673,0.0151641425,0.0032418147,-0.026176475,0.022701187,0.027996525,-0.032648,-0.033150524,-0.023721915,0.03507207,0.016240377,0.0003788794,0.0065170396,0.003998186,0.035453446,0.022023754,0.030787779,-0.02274147,0.00012282755,-0.022979092,-0.013471069,-0.022846865,-0.022894803,0.014588266,0.022467732,0.017034836,-0.0071441536,-0.015790293,-0.023165023,-0.017529286,-0.030808084,0.021568239,-0.0046588797,0.023618236,-0.006343958,-0.03353369,0.0053143743,0.020816628,-0.014470346,0.0027306431,-0.029929409,0.014717805,-0.020709002,0.026814802,-0.0036502674,0.0027463294,-0.031713113,-0.024469199,0.023154402,0.026552154,-0.0026373367,0.02894754,-0.022360869,-0.012284025,-0.0043686894,-0.012564608,-0.03181339,0.008388376,-0.019674944,},
{-0.021632446,-0.0038687512,0.010598837,0.03148978,0.016810833,-0.025790619,-0.013143926,0.009366587,-0.026274603,0.020002238,-0.01021176,-0.03548686,-0.022177737,-0.026565082,0.021073673,0.033961847,0.03324353,0.03114966,0.02070493,-0.025839344,0.011457057,-0.0037092054,0.026827153,0.030394316,-0.005701041,-0.014443496,-0.027238628,0.030041791,-0.03254363,0.023574304,-0.005616501,-0.0009293922,0.021340962,0.009743862,-0.024515107,0.00066281785,-0.005627899,0.017141415,-0.022781445,0.0052534463,0.009808493,-0.013057314,-0.0066918726,-0.022738777,0.0023821911,0.03489118,0.0076997695,0.010030237,0.031155156,0.02288633,-0.009939484,-0.034885142,-0.0007142424,0.022135891,0.01404202,0.028407175,-0.02470238,0.008018016,-0.0050577982,-0.023065722,0.022882642,-0.010623542,0.02038355,-0.024269475,-0.017834261,-0.0028908262,0.031996094,-0.015991358,-0.001162899,-0.031697657,-0.029314369,-0.021031266,0.0054334127,-0.0022568488,-0.015458434,-0.01689964,0.026094142,-0.0019531357,-0.00801182,-0.0337331,-0.02812373,-0.03326024,0.028881833,0.031298574,},
{-0.017909244,0.028191237,-0.035847254,0.028602151,0.03210589,0.018418785,-0.016376194,0.0027537085,-0.016897675,0.028884148,-0.03210492,0.036334388,-0.018990109,-0.014112854,0.03636538,-0.01118505,-0.00023587831,-0.02063792,0.023920063,0.004517461,-0.002095365,-0.0331197,0.032776423,0.02557569,0.034472656,-0.0050848434,-0.016764088,-0.035426192,-0.009885411,-0.0075563914,-0.029938124,-0.026354577,-0.033792738,-0.0049449857,-0.034032192,-0.009375835,-0.003554533,0.0012272523,0.029136172,-0.0072447266,0.0037293832,0.02051612,0.008973157,-0.011587602,-0.009142523,0.016586665,-0.027948473,-0.0017369064,0.0040160487,-0.023348605,-0.0027808668,-0.009879939,0.032803565,-0.008203935,-0.013824064,0.025737999,-0.006034895,-0.014165029,-0.031583227,0.014623475,0.016116846,0.026940404,-0.02970545,0.020945322,0.017903183,0.032640543,-0.013662724,0.034502428,-0.031646688,-0.009197568,0.0048643956,0.000468635,0.026401788,0.0030292966,-0.026643662,0.0057384395,-0.006691101,-0.013808036,-0.03299223,0.012490855,0.004235053,0.0055662296,0.030461092,0.017176073,},
};
PROGMEM const float percieve_kernel_front_damage[28][84]  = {{-0.011035944,0.028635323,0.035556473,0.02062862,0.014055733,-0.013098766,0.030894436,0.024011172,-0.022510737,-0.034744225,-0.012231187,-0.026997894,0.018335897,0.027341178,0.004185571,0.009122358,0.03022148,-0.0025401586,0.022109196,-0.016998729,-0.005194244,0.011529561,-0.028707676,0.025156997,-0.033863757,0.009300989,0.024820888,0.024653973,0.0016644498,-0.006040969,0.00849113,0.002429176,-0.0019880459,-0.02385242,-0.0039075026,0.03438976,-0.023861937,-0.025292562,0.033116553,-0.032231655,-0.027926296,0.031130157,-0.03495653,-0.012613201,0.005854183,-0.0021782531,-0.009451274,0.028531607,-0.008709747,0.010383519,0.010546767,-0.005050935,0.030356895,0.01867521,0.030216468,-0.015101688,-0.0062073,0.022800226,0.011546448,0.011722421,-0.02835358,-0.03114335,-0.009656032,-0.00835314,0.024705214,-0.02480988,-0.0076132873,-0.010952015,-0.0015255458,0.019440154,0.009808684,-0.025222963,-0.006037535,0.022906097,0.0053682704,0.022841431,0.016723435,0.0020571598,-0.017196473,-0.021455033,0.017559374,0.008543651,0.020389533,0.021630673,},
{-0.014936297,-0.009659062,0.009894966,-0.024810696,0.015202143,-0.009975608,0.009990354,-0.023534095,0.034147024,-0.006991619,-0.008920697,0.009419459,0.035253298,-0.030084493,0.026208432,0.013039026,0.018138355,0.009045492,0.026004806,0.031601474,-0.0012654532,-0.025073757,0.0039991965,-0.0321707,0.036201622,0.033496328,-0.0202192,-0.027272267,-0.010700976,0.0138430195,0.021987297,-0.01388788,-0.010386211,-0.007442903,-0.0070254235,0.008144858,0.035860956,0.00081737764,-0.03320228,-0.0009400578,-0.017620819,0.012114243,-0.01092882,0.029555945,0.022566944,-0.011929143,0.0010493409,-0.0024038344,-0.016934263,0.0056945113,-0.027767077,-0.008342119,-0.018763501,-0.0025736555,-0.033044584,-0.02602838,-0.02540231,-0.002326418,-0.0224086,-0.031264577,0.03290427,0.013614803,0.012838288,0.02142447,0.0046480754,0.012160959,-0.029680837,-0.0046520988,0.023671769,0.017159393,0.0050415047,-0.0122653125,0.0052850703,0.018593622,0.030343363,0.028544921,0.023481352,0.014567152,0.004328082,0.008338234,0.02149472,0.027725216,-0.014473424,0.02842091,},
{0.026994936,-0.00085913815,0.009496217,0.021315413,0.006018073,-0.012281744,0.01833412,0.0055327676,0.024013838,-0.0058352407,-0.034123942,-0.031759016,0.0028736442,-0.00028165357,0.02977188,0.017524121,0.024589034,-0.006552362,-0.023850214,0.02642439,0.036059014,0.00827141,0.03197997,-0.023715107,0.0031491197,-0.027034715,0.023855194,-0.031706475,0.019789543,-0.0094563635,-0.020841194,0.022958996,-0.0008877791,0.030151427,-0.0354033,0.0054064887,-0.021609457,0.0004895326,-0.016000457,0.018883368,0.023284893,-0.005275675,0.011902852,-0.012587456,-0.01678812,-0.011383343,-0.010499674,0.0043378286,0.021051822,0.0015008242,-0.035856694,-0.02374785,-0.007900781,0.029793223,0.027269987,0.0115663055,-0.036303975,0.005074898,-0.004199141,-0.012821743,0.01549396,-0.027739992,0.014064807,-0.028786723,0.03245072,-0.013194553,0.014468018,-0.030964304,0.00094586314,-8.85633e-05,-0.017029027,-0.0018500742,0.02054087,0.02397624,0.025276877,-0.006139977,-0.032176152,-0.03435752,0.01662324,0.010618651,0.0061330483,-0.002762124,-0.011621168,0.01490297,},
{0.017365906,0.025048425,0.030571654,-0.0135568185,-0.015694546,0.0066135805,-0.031567156,0.02561739,-0.00064672844,0.017403662,0.0070972773,-0.006600812,0.016316593,0.008532942,-0.0075525977,0.0014409627,0.019856136,-0.015417766,0.01791212,0.0036287108,0.027632555,0.00074840256,0.025981862,0.003555556,0.032756515,-0.034341276,0.008965517,-0.008404526,0.025917098,-0.008949377,-0.0068377266,-0.025982339,0.01655668,0.029540662,-0.0136062745,-0.00220281,0.026680129,-0.0019835413,-0.024322594,0.022497939,0.03468265,-0.012139641,0.0031634402,-0.005639449,0.014153093,-0.03613781,-0.028595192,-0.031360835,0.021277785,0.032600675,-0.028100796,-0.029058015,0.0022808854,-0.0063600303,-0.019950133,-0.02263204,0.01054221,0.0146147,-0.03572915,0.02657333,0.007619821,-0.0064947763,0.029839389,0.013670932,0.01631054,0.016243603,-0.022935892,0.02538841,0.0043887543,0.033806436,0.031000862,0.012826746,-0.013427488,-0.004166676,-0.017795695,-0.024664577,0.026734201,0.030762803,-0.03632582,-0.032621756,-0.03442498,0.00032334035,-0.01406991,0.033923842,},
{0.009204153,-0.013942166,0.032761943,-0.029401384,-0.014113414,0.0024462843,0.008803917,-0.031019336,0.031344153,-0.011310457,0.0004228207,0.0048381654,-0.004056556,0.021858456,-0.031144626,0.023218121,0.030077713,0.016836014,-0.034493044,-0.0045724623,-0.03429313,0.023254605,-0.019286063,-0.035177477,-0.035172064,-0.0019718916,0.0023105235,-0.0132199945,-0.026705245,0.0138072595,-0.0030509962,-0.022884782,0.023140436,-0.006313097,0.031235872,0.0042145457,-0.014035841,0.007339958,-0.011882045,-0.011287964,-0.027606463,0.011285532,-0.03199267,0.008247781,0.016826732,0.006859335,0.007225871,0.006373319,0.021048998,-0.034992136,0.0023364981,0.035031777,0.03375177,0.008881702,-8.598795e-05,0.0075129443,0.0017850575,-0.013724671,-0.02630434,0.035807446,0.002940382,-0.023992937,0.020138215,0.0039268658,-0.0022183356,0.023257887,0.025639007,-0.031308424,-0.0006381396,0.020333543,-0.013686097,0.034408383,-0.0047420105,0.029438546,-0.0073256507,0.028750902,0.017905703,-0.021827184,0.0041355207,-0.029335171,-0.031938538,0.017429827,-0.0097504,-0.0096746,},
{-0.007348135,-0.013287126,0.030369451,0.0130420225,0.0014299589,0.011210881,0.018447205,0.0023674932,0.035076432,0.035858613,-0.022959035,-0.006425138,-0.0016441159,0.008486859,-0.012946669,-0.029717406,-0.011937229,-0.011097618,-0.0070391716,0.02320231,-0.031089755,0.0028979366,-0.027384771,-0.017156549,-0.014760333,-0.035066914,-0.011251146,0.009118646,0.023738146,-0.022158198,0.017405583,-0.00994179,0.010765693,-0.023359064,-0.013773598,-0.019400375,-0.020654794,-0.026977073,0.020949524,-0.005397397,0.0055459044,0.005157777,0.029222745,-0.024322437,0.032699212,0.027738595,0.034566183,0.035307523,-0.018104108,-0.019096792,0.0114686545,-0.009180333,-0.02621515,-0.032327052,-0.003820613,0.0003894149,0.018678762,-0.0071236636,-0.0075025996,-0.031164913,-0.033131715,-0.0048119826,-0.022134062,0.011169476,-0.011640357,0.015548047,0.0050007068,0.0056821895,0.017046733,0.014445755,0.0013060605,0.00031269647,-0.017901726,0.022363232,-0.01175356,0.004014861,0.021411126,0.019046502,-0.014568513,0.019192236,-0.0045584193,0.029052552,0.034029104,0.010683924,},
{-0.035871834,1.7043243e-05,0.033864975,-0.023886831,-0.00708597,0.0013173417,0.017433425,-0.0043792375,0.009318865,0.032724913,-0.03289582,0.004031718,-0.01972044,-0.0057527428,0.025337232,0.01637153,0.009851514,0.011258178,-0.023693416,-0.033566322,-0.015412173,-0.017114,0.015554402,0.009790921,0.010161485,-0.030585207,0.0024001794,0.0100248605,-0.005116415,0.018704081,-0.0028506266,0.011794601,-0.018387709,0.0035774726,0.017133392,0.028628495,-0.016602565,0.020861614,-0.00092009234,-0.011285003,0.014906456,-0.009669697,-0.025880843,-0.001928761,-0.034178454,0.024222607,-0.0014737875,-0.016720913,0.025479484,0.018650685,-0.02248486,0.011147153,-0.0100921625,0.03302002,0.010849661,0.0027758114,0.0042476133,-0.020675289,0.010587747,0.006204239,-0.015123062,-0.032412555,0.020320129,-0.01646473,-0.034784827,-0.019328143,0.012554302,0.021731224,-0.02015808,0.0040194653,0.018227369,-0.017082008,-0.026338344,-0.033619143,0.0101407515,-0.024961848,0.03274818,0.023680547,-0.017522808,0.026365083,-0.032253366,0.020654634,0.035856217,-0.034942094,},
{0.0020456142,-0.024964895,-0.02739584,-0.03628177,-0.0328173,-0.01922092,0.018953187,-0.00024927533,0.00083431246,-0.017900612,-0.017835101,0.007347788,0.033101704,-0.024568241,0.019241873,0.010611498,-0.026324341,-0.0048379963,0.018656,-0.0017482353,0.0096352855,-0.015385149,-0.000887558,-0.02804498,0.029521953,-0.020946158,0.025634767,-0.026366634,0.02086425,0.024828354,0.009981557,-0.011231545,-0.0038042115,-0.031923324,-0.016479736,-0.03100446,0.012999841,-0.026605682,-0.016531846,-0.003411328,0.01074278,0.034316305,-0.025352538,-0.032395594,-0.024244094,0.0004393697,-0.030544851,-0.018437294,-0.035832588,-0.03089796,-0.02851185,0.011767395,0.026783485,0.013904811,0.021807192,-0.023273809,0.025232468,0.012390078,-0.010051425,0.00097398815,-0.00012510807,0.02749236,-0.02636552,-0.014917039,0.030922834,0.017975328,-0.021441706,0.023779608,-0.03534375,0.019744331,-0.004269456,0.0063326205,-0.035721805,-0.008563244,-0.03311497,0.006235629,0.02049286,-0.021739773,-0.019467523,0.024500592,0.020749679,0.022180062,-0.035144847,-0.01566173,},
{-0.010235172,0.0014714289,-0.005331847,0.026085068,0.020799767,-0.033042226,0.013780535,0.028573796,0.019520177,0.0036692745,0.016485529,0.02004395,0.002745406,-0.024544524,-0.03528057,0.002544659,0.0043219514,-0.025102694,-0.031182328,-0.020537758,0.035703566,0.028353019,-0.015560641,0.00041622625,0.016545031,0.016414238,0.016714735,-0.022383153,0.0035974467,0.027512243,-0.0065627587,0.02838721,0.009127383,0.007008306,-0.0019109894,-0.0043247393,0.03076664,0.015097231,0.005352888,-0.014480986,0.022477211,-0.026997216,-0.01685203,-0.023530424,-0.016054722,0.015200526,0.011295638,-0.013920146,-0.0060294885,0.023546677,-0.029738035,-0.0035408107,0.0016430797,-0.0061589535,-0.028479436,0.011383594,0.0055509554,0.018682538,-0.0306712,0.0007642709,0.0014235162,-0.0048630126,0.026667707,-0.0061044334,-0.025770962,0.001477824,0.033818994,0.0039193174,-0.034979995,-0.0010076758,0.03490834,0.0061114575,-0.009209161,0.018497877,0.025800427,0.023602966,-0.005532082,0.0059631667,0.017598586,-0.003873711,0.015475785,-0.029813522,0.01844906,0.027592136,},
{-0.005248001,0.03175335,0.02565749,0.027785178,0.011097094,0.030782897,0.027048152,-0.025265934,-0.03601216,-0.004972842,0.030127663,0.023715038,-0.007129495,-0.035925288,-0.007523796,-0.0009252517,0.032788835,0.033599712,-0.0285601,-0.027739342,0.019084305,-0.024169989,0.00163231,0.02699396,0.020517034,0.015021341,-0.012144271,-0.0041637495,0.033489518,-0.0020365007,0.021489002,0.017746326,0.010918038,-0.0053243507,0.03267531,0.008192168,0.0066043064,-0.023551526,0.022797773,-0.012679904,-0.026723957,0.014191671,-0.0068037617,0.020454828,0.0014685327,-0.028670382,0.0036955439,0.030040374,-0.01027679,-0.0003457164,0.005782654,-0.027177101,-0.020134019,-0.013387716,-0.018749192,-0.02591474,0.03408731,-0.010725854,0.0060003577,0.019651383,0.023889434,-0.0030431272,-0.0034570035,0.01937443,0.034592077,-0.015269111,0.0032690726,0.0016257416,0.01843396,0.009842181,0.021755632,-0.012771268,-0.0112361275,-0.0124058295,-0.023038523,0.0012374019,-0.017552871,-0.013127407,-0.0021018642,-0.0051074754,0.036219962,0.0065939534,-0.030246593,-0.018865986,},
{-0.010865581,-0.025921801,-0.025894275,-0.009556564,0.020295983,0.009937238,-0.028016217,0.024207618,-0.0063059046,-0.009231814,-0.013461834,-0.030102408,0.0024980989,0.02871281,-0.0060860505,0.005215237,-0.0034081545,-0.010440047,0.034953274,-0.025613982,-0.03257967,0.01949375,0.02121118,0.013787472,0.03554478,0.0023875542,-0.0016429148,0.0046591484,0.00051898434,0.025373954,-0.011076864,-0.010709868,-0.03617394,-0.0062247333,0.027959794,-0.033370692,-0.025363628,-0.021528633,-0.004342359,0.0048586857,-0.0061747483,-0.014525465,-0.03177844,-0.002932214,-0.024449067,-0.011675398,0.02937503,0.03211899,-0.015027957,-0.0036221726,0.015648004,0.020569235,0.0068901004,0.00411559,-0.0033956636,0.013116898,-0.013774205,-0.025449287,-0.02093241,0.011723085,0.03420359,0.0061873216,-0.014454461,0.021452423,-0.012166886,-0.01263226,-0.029532507,-0.023339761,-0.026731115,0.011602391,-0.020464616,0.016134024,0.016734704,0.004243022,-0.029132495,0.03344834,0.014489167,-0.020268705,0.020857604,0.028110743,-0.027780633,0.0030065693,-0.01867642,-0.006030906,},
{0.012283644,0.03357858,-0.009130713,0.0018819885,-0.02191083,0.009578385,-0.021895828,0.032695353,-0.005014663,-0.024834068,0.0023728001,-0.023524094,0.022740906,0.012249076,-0.035340305,-0.026269568,0.03063259,-0.016381487,0.008649201,0.007871347,0.012643606,-0.027583823,-0.03198765,0.0151453605,0.006693273,0.028504437,0.018681845,-0.02848484,0.0002655165,0.003194652,-0.0014492567,0.012941232,0.013094643,0.0022905408,0.034087114,-0.007642076,-0.014553712,-0.022106083,0.02025337,-0.0017367156,0.008377701,-0.0025548432,-0.0058259233,0.0014630439,-0.0054611564,0.01742817,-0.035864044,0.027041892,0.017042944,0.00016736283,-0.02718265,-0.011960411,0.015786707,-0.0317395,0.008631871,-0.009261136,0.01611987,0.031448063,-0.0054995264,0.016227981,-0.031844877,-0.019641962,-0.0025190918,-0.019362481,0.00055059517,-0.020927716,0.029172504,0.028421093,-0.017855452,0.01937152,0.0135355955,0.03354538,0.020912388,-0.032056667,0.0051712436,-0.028258143,-0.021037892,0.017728329,-0.008936347,-0.02762398,-0.009081807,-0.011433744,0.027723465,0.023527648,},
{-0.014195201,-0.0017906894,0.034134794,-0.025653038,0.020405132,-0.0124079315,-0.025423545,-0.017560896,-0.024100052,0.014454101,0.017810788,0.012343527,0.0018520252,0.017323865,0.008183735,0.006240888,-0.00951372,-0.018288909,-0.0138021875,-0.0065801833,0.0284807,0.01492209,0.02956831,0.02160882,0.03003975,-0.012379829,-0.03375568,0.0041473266,-0.03045002,0.022396535,-0.012993065,-0.0095458375,-0.006147625,0.015542063,-0.003894665,0.017245118,-0.0047860644,-0.0015682689,-0.011731947,0.029401962,-0.025226427,-0.024991725,0.015064194,0.014373519,0.008665672,0.020512776,0.01130293,0.02014797,0.026304202,0.036223423,-0.02862109,0.030443832,-0.0070479596,0.026966019,0.017167458,-0.020305254,-0.024133883,-0.022466386,0.021337828,-0.029189387,0.01608785,-0.014529341,0.012949332,-0.029227667,-0.01665111,-0.0006018203,0.020615105,0.03098472,0.01460762,0.0213263,0.03459589,0.018451437,0.034176435,0.0009850917,0.0037977211,-0.025566772,0.02568516,0.017500771,-0.031137038,-0.035385355,0.022876007,-0.009080125,0.0007904102,0.0032369848,},
{-0.031387307,-0.011641285,0.034805804,0.008999014,-0.021265276,0.016239237,-0.036231246,-0.009312855,-0.021091692,0.016902376,0.0016219176,0.020045303,-0.017799646,-0.011710204,0.0034450938,0.0015125651,0.012056311,-0.024956763,0.03537357,-0.027880551,-0.017658127,0.020741995,-0.02045715,0.03528364,0.0037907537,0.002894091,0.0034656487,-0.022723716,0.008110039,0.013128253,0.022120005,-0.029862355,-0.024754055,-0.035006415,0.003452837,-0.03591965,-0.004292309,-0.022501772,-0.027052522,0.030642753,-0.014329677,-0.00032908938,-0.02802487,0.01235019,-0.004746788,0.024764093,0.016512748,0.01015923,-0.03045774,0.004168714,-0.009279506,-0.02587829,-0.03595896,0.003449208,-0.014203759,-0.031326044,0.021487406,-0.029776184,0.031202966,0.0029246395,0.002577848,0.007445495,-0.001459376,0.0124640735,-0.021396974,0.028113477,0.0008150971,-0.020969437,-0.0007093388,0.029718257,0.03473752,0.013529838,-0.0026468057,0.022373855,-0.017674273,0.027523601,-0.024790999,0.025590463,0.030501924,-0.034551255,-0.009142206,-0.014536416,0.031277094,-0.020809414,},
{0.0015841675,0.016429018,0.013313058,-0.010333109,-0.025416175,0.011742921,0.031303067,-0.022476768,-0.010062129,0.013927195,0.008888678,-0.022273073,-0.019725636,0.017076055,-0.010848192,-0.011308077,0.014855352,0.014140481,-0.02137952,-0.0024403618,0.008532118,-0.027904347,-0.026772399,-0.029181818,0.00068720995,0.009593113,-0.0034434332,-0.018143756,-0.00520673,0.001600491,0.005843591,0.01855446,-0.025025602,-0.003364174,0.011725491,0.00078549364,-0.007242342,-0.035085686,0.026994655,0.03190946,0.02055478,-0.027335666,-0.008966871,0.028842535,0.013856539,0.017123526,0.03400252,-0.020852141,0.019100906,-0.028642282,-0.022218376,-0.018371042,0.00021280425,0.021076102,0.0082740635,0.005430014,-0.015451116,-0.027944064,-0.0094821,-0.031568367,0.0065142256,0.018373556,0.019927362,0.005564361,0.022392254,0.03211399,0.016541285,0.0030264265,-0.0071375766,0.011680644,-0.034451503,0.018012878,0.03436066,0.011003024,-0.03605863,0.008372113,0.023399172,0.012736653,0.016013565,0.01445375,0.00067272905,-0.0017983895,0.027997695,0.017764466,},
{-0.027943179,0.012929986,-0.014428807,-0.00353517,-0.003938628,0.018433003,0.0161308,-0.024253411,0.011804126,0.028066294,-0.012113983,0.008370062,-0.024761321,0.02289785,-0.02009876,-0.02302334,-0.0078547755,-0.033543676,0.017681396,0.019335635,0.018473765,0.0072473367,0.009157077,0.012228139,-0.030683396,-0.02302422,-0.010945938,0.032319434,0.026985195,-0.00963842,-0.019186096,0.014879242,-0.03016335,0.015123639,-0.03181441,0.035549764,0.019357907,0.035690382,-0.007257291,0.009964773,0.016074345,0.0019834416,0.0018232325,0.024358107,-0.014208732,-0.0011421487,-0.02889614,-0.017483376,-0.030492187,0.024114225,0.022302097,-0.012576114,0.027953664,0.018178398,0.017539695,0.018140255,-0.02181778,-0.010185183,0.010342032,-0.028446715,-0.028028049,0.026227402,0.0017462105,-0.01354095,0.024476312,0.006318118,0.031072196,-0.035370633,0.031263612,0.0077430476,0.016211644,0.019399272,-0.01214431,-0.029384676,-0.012405036,0.03136151,-0.009673534,0.03438735,-0.025046466,-0.0047125197,0.036192503,0.0136532895,-0.011363339,0.030619117,},
{-0.024070054,-0.004453216,0.03556601,0.027146665,0.0061020316,0.02898681,0.020887563,0.024385057,0.007663424,0.0047503565,0.033000167,0.006066861,0.012663663,0.0034457266,0.035315983,-0.0333651,0.012103993,-0.030409273,-0.035993263,0.035154577,0.0092777675,0.011993735,-0.02917817,-0.022331664,-0.034772087,-0.017687583,-0.03472092,-0.010025793,0.012434838,0.012267879,-0.014282333,-0.0051396973,-0.027257213,-0.014247271,-0.034215603,-0.027704539,0.020832852,-0.001549526,-2.1812402e-05,-0.03062006,-0.019265503,-0.031910177,0.015052982,0.017011445,-0.010362669,-0.0032463064,-0.029229427,-0.023742335,0.025660226,-0.00711563,0.021705426,-0.025838427,-0.030637296,0.021080315,0.03503755,-0.0029130767,-0.023670325,0.012727348,-0.015301355,0.01934147,-0.03467751,0.010422886,-0.029703083,0.020790169,0.0020314627,0.001980697,0.028104676,0.02961693,-0.031150306,-0.027414262,0.021899302,0.010812119,-0.0060983943,0.029614406,-0.02503933,-0.03444122,0.0327584,-0.0092456015,-0.029692391,-0.026853131,-0.03253059,-0.034296565,0.027469676,-0.033092164,},
{0.033545643,0.0039604967,0.018725824,-0.012108281,-0.010251838,0.0012560276,0.022358948,-0.025391722,-0.00059286726,-0.011855537,0.019002102,-0.02705631,0.003922361,0.035475895,0.02773511,-0.018233279,-0.0029887804,0.011377967,-0.008391818,-0.027089417,-0.005146743,-0.028120987,-0.010958034,-0.0010932519,0.013318312,0.03547082,0.0076701096,-0.005432637,-0.035360012,0.013453258,-0.015291119,0.0009079136,0.010129683,0.02531161,-0.01458579,-0.035161417,0.025051061,-0.017400237,-0.009303153,0.011395925,-0.022219853,0.01899278,-0.02053175,0.001328753,-0.019897334,0.0009848531,0.02261265,0.022787089,-0.0088082785,0.0254648,-0.028542273,-0.022068797,0.027419886,-0.020162035,0.03509502,-0.024882047,0.012127583,-0.022623533,-0.029839719,-0.012848077,0.026142618,-0.013896629,-0.0067085084,-0.0029278565,0.011102487,-0.002829174,-0.03543655,-0.02325128,-0.023351654,0.033875708,0.030441556,-0.008263831,-0.0294332,0.0024370493,0.0005358021,-0.018821701,-0.031006437,0.03567752,0.027722789,0.00031207214,0.023808561,-0.009517154,0.031258684,0.0069815773,},
{0.010273369,-0.025947116,0.0006721481,-0.030697158,0.025237396,-0.016280442,0.028080523,-0.0002720502,0.03413286,0.019085983,-0.016987089,0.022030775,-0.0026623663,0.019383015,0.00473813,0.025167156,-0.03234514,-0.0008886202,-0.036121186,0.013870347,-0.036087345,-0.032099254,-0.0057606553,0.00044712174,-0.016191138,-0.006990457,-0.01856767,0.029074693,0.013568307,0.03341407,0.0081798155,-0.02439747,-0.022023669,-0.017845564,-0.021655714,-0.012955922,0.011835026,-0.03279344,-0.02102531,0.013567306,0.025127117,0.030775016,0.008264078,0.0057220035,-0.007490321,0.03189161,-0.035692524,-0.012168455,-0.02397566,-0.0144405,-0.023330249,-0.0008306576,-0.0017942403,0.032969505,-0.0064512035,0.020854982,-0.011812641,-0.025381967,-0.0050472496,0.008500659,-0.0018893157,0.029069802,-0.0034521953,0.024870545,-0.007431071,0.029293282,0.017701734,-0.0051931557,-0.027554272,-0.034865923,0.032098576,-0.014812222,0.017714133,0.031737003,-0.024964323,-0.000603134,-0.035537764,-0.016215468,0.021130681,-0.034117535,-0.011352647,-0.03120545,-0.0015179368,0.017791936,},
{-0.007214772,-0.027758965,0.011836166,0.022449585,-0.010072522,0.024340926,-0.002133761,-0.020935815,-0.014127652,0.027920995,-0.016326621,0.03479916,0.009231866,0.0041752825,-0.01590801,-0.021525394,-0.025625272,-0.011028127,-0.02294209,0.024683494,-0.013875558,-0.024097659,-0.020717105,0.010890455,0.008724055,0.012419942,0.00017553977,0.036308274,-0.030866263,0.0011936773,-0.0033351993,0.018093472,-0.019583106,0.02337797,0.022179898,-0.0024491022,0.02140567,0.029229851,-0.029100994,0.027620763,0.029686471,-0.029205767,0.035879422,-0.000776068,-0.016146991,-0.028710654,0.006254983,-0.016364796,0.020535959,0.007829413,0.014994312,-0.01717016,0.020617994,-0.017014056,0.028960342,-0.03177312,0.027408166,0.01807557,0.017185837,-0.008602828,0.014317694,0.012236988,0.02339947,0.0022683467,-0.0028315804,-0.013384413,-0.033365887,0.03166668,-0.0003023864,0.0018086259,0.005596492,0.014939068,-0.011910201,-0.028524315,-0.004387345,0.003922851,0.036088005,0.034405787,-0.034770098,-0.00515828,-0.028328376,0.0074906116,0.0049446565,0.00046181944,},
{0.010718102,-0.0114879785,0.020523516,-0.027124874,-0.03369123,-0.007709759,0.019034095,0.014378202,-0.03233296,-0.032957215,0.01417145,0.023146778,-0.0051720194,0.023012219,-0.0010651269,0.03337723,0.001143237,-0.026361162,0.0020913503,-0.03334432,-0.0020403247,0.007918743,-0.0012270007,0.012935626,-0.0066892104,-0.025205582,0.024089452,-0.018538583,0.020511003,0.015174457,0.00407947,0.023194887,0.029293533,-0.027912544,0.0073260367,-0.005445097,0.032909192,0.027139377,-0.012822189,-0.025910104,-0.022756016,-0.033046685,0.027193263,0.0012139463,0.026944313,-0.016759777,0.030898359,-0.0129089495,-0.031194758,-0.024630092,0.02104197,-0.030908374,0.026782107,0.03394365,0.00813871,-0.031371057,-0.024489094,0.00842368,-0.0046753376,-0.0044018608,0.0058391034,0.0302286,0.0050290357,-0.027972069,0.015161901,0.016748015,-0.015761388,-0.0052671684,-0.029341497,0.013177141,0.030519934,-0.012776961,-0.030388892,-0.0046405704,-0.023763185,0.033537734,-0.016285853,0.017646117,-0.024922546,0.020062378,-0.00427576,-0.010417025,0.0043952055,-0.0029784357,},
{0.007170254,0.029000511,0.014124556,0.031182028,-0.009491153,0.005109604,0.031718165,-0.015872462,-0.019330628,-0.010029404,0.0016875152,-0.0028560634,-0.015911466,0.016715545,0.031428885,0.00397927,0.029529372,0.010952575,0.00087472895,-0.005568883,0.024783187,-0.030212693,0.002045818,-0.02138898,0.010528354,0.007070518,0.011865384,-0.035500888,-0.016486283,-0.019694854,0.016288046,0.018299123,0.005591788,0.013149393,-0.03327982,-0.0071396446,-0.013152359,-0.022613509,-0.0027993235,-0.0074343053,-0.023912255,0.02938481,0.02576543,0.0068229553,-0.022411874,-0.022739433,-0.010638721,0.00014121483,0.0151191475,-0.024023008,-0.0140458,-0.03183764,-0.024478741,0.031489126,-0.029141327,0.024292422,0.02542701,0.03429911,0.032451507,0.028223936,-0.00809192,-0.01249483,0.027317362,0.0059124227,0.0014156904,-0.0146322595,-0.008871378,0.018583443,-0.032698773,0.032055452,-0.027514528,-0.011544779,-0.0018695974,0.027364954,0.022308959,-0.026890878,-0.008989728,-0.011979488,0.02100452,0.035947416,0.020253174,-0.010171473,-0.031101799,0.0013842573,},
{-0.014673824,0.019464685,0.023975672,0.018406777,0.003413214,0.0074577695,0.02579117,-0.008548402,0.031774085,0.00683017,0.011843775,0.0007247172,0.01967937,0.015151612,0.0101018045,-0.0041712155,0.005815583,0.0029122746,0.026206117,-0.01626614,-0.030811999,-0.03083418,-0.031934556,0.009946092,0.033645988,0.0023890934,-0.012698092,0.029965693,-0.016130617,0.0185278,-0.013213634,0.007721595,0.006149875,-0.014382399,0.018466005,0.009925567,0.020265184,-0.020320024,-0.030039642,0.019792123,0.00096245983,-0.03095853,0.017592404,-0.0051533156,-0.033562057,0.0042594583,0.03048415,-0.012019258,-0.015706543,-0.0033601245,-0.032825213,-0.020569183,0.005837677,-0.031057246,-0.034447316,-0.016030204,0.014440972,-0.0039847544,0.012259216,0.00849925,0.026616031,-0.03151158,-0.009002799,0.005163331,0.001034071,-0.022391604,-0.012779415,-0.0057448866,-0.018976184,-0.008466486,0.012367108,-0.01643551,0.02173112,0.03278801,0.0153758535,0.01689062,0.025331795,0.005678127,-0.029292159,0.012153428,0.01825428,0.011913136,0.018280108,-0.0005816684,},
{-0.009836804,0.0076569165,0.011834609,-0.00991318,0.0013200991,0.021135738,0.015511831,0.021802643,0.0064277262,0.01811655,0.031472046,-0.027683338,0.035394054,0.009375921,0.020741245,-0.015300666,-0.006982969,0.003975806,0.033487584,-0.034527384,0.029325364,0.020883922,-0.0075019016,0.025986567,-0.01819725,0.009439047,-0.01019659,0.0124115,0.027699878,0.027618729,-0.0038125357,-0.0052497177,-0.0015927737,-0.029538434,-0.0024678798,0.019602343,0.01891928,-0.021314671,-0.009221596,-0.03484582,0.019066239,0.0061407443,0.009767404,0.0321997,-0.015156898,-0.00818703,-0.0040254616,-0.008186809,-0.032347057,0.028148167,-0.026892086,-0.015352542,-0.022832114,0.028000947,-0.011236535,-0.009443834,-0.035487738,0.007984007,0.015546017,-0.025881432,0.030578345,-0.00058077526,-0.023402398,0.021530047,0.035322066,-0.027825203,0.0022293741,-0.032428622,0.008771504,0.013101233,0.021605048,0.0018820448,0.02619226,-0.010053255,0.011099947,-0.027307888,-0.026904825,0.017646486,-0.0010851963,-0.0026416723,0.034370247,-0.00047442736,0.02751337,-0.019278731,},
{0.022556474,0.0039025906,-0.02573828,0.02904077,0.033000574,-0.019580506,0.0073360084,0.035804376,0.0055955513,0.031491842,-0.016875027,0.018425658,-4.4548287e-05,-0.019485824,-0.025713952,-0.022015763,0.0164713,-0.027381308,0.0051132506,-0.019751402,0.016388629,-0.022742528,-0.031188007,0.01961806,0.0006976847,-0.020759087,0.0003273378,0.003974904,-0.024433915,0.006366074,-0.006776573,0.0046853614,-0.030275589,-0.023062143,0.034760166,0.018861039,-0.0033209352,-0.018847633,-0.013786878,-0.035047125,0.03291943,-0.0240934,0.009130063,-0.0037480134,0.03484692,-0.0032055648,0.032454327,0.018419862,0.0018373448,0.034745295,0.023027057,0.0032572192,0.0025915354,0.019768232,0.021403382,-0.024370711,0.017731376,0.017813502,0.032656185,0.010820717,-0.013696004,0.0013344847,-0.011496494,0.026545204,0.034502752,0.021799253,0.01575264,-0.012403185,0.027848378,-0.03508719,0.030138299,0.021495683,-0.033748757,-0.033486374,0.015823347,0.035486396,-0.034851238,-0.0023376427,-0.010871846,-0.02456374,-0.0051848744,0.0034966744,0.026921904,0.004982901,},
{0.0029230136,0.023909857,-0.0037418786,0.02001632,-0.0117751295,0.01807653,0.019809624,0.0067281965,-0.012524998,0.008245336,-0.0028727555,-0.0176768,0.01865127,-0.0062987898,0.019643467,-0.020749938,0.021215122,0.0008778723,0.020880036,-0.0036779977,0.018480381,0.014095153,0.002461914,0.015648732,-0.008969671,-0.020241693,0.0077754087,-0.012912504,0.00670706,-0.0029133714,-0.01625918,0.026953245,-0.032634407,0.008914687,0.0054165516,0.028990813,0.009392392,0.016105605,0.032252077,-0.03264401,0.024755053,0.0022652512,0.0075455178,-0.018683579,0.016785044,0.034243662,-0.011590646,0.0075167683,0.000535698,0.01624877,0.034723457,0.020291032,-0.00221896,-0.013526148,-0.025371263,0.008500486,0.013588776,0.0018750168,0.0037365675,0.00018389447,0.008443914,-0.021481484,-0.009678806,-0.020888729,0.019454075,0.014889829,-0.012363098,0.025162607,-0.034443367,-0.024307128,-0.020085087,-0.029386973,-0.030755492,-0.014504225,0.012919468,-0.009571179,0.03141287,-0.025961103,0.019748857,-0.021949958,0.01228027,-0.014626063,-0.021163208,0.009811007,},
{-0.01598214,-0.012875193,0.0071802563,-0.029591752,-0.012665752,0.0125951385,-0.021210553,0.010913728,-0.035097796,-0.016210053,0.008793663,-0.034793235,-0.021568876,-0.0126251755,-0.028080376,0.02565756,0.0031880056,-0.026202627,-0.0003532777,0.009713639,0.0039926018,0.0045843376,-0.022819944,0.0009387961,-0.019977374,0.015904745,-0.033982366,0.022411058,-0.035532303,0.02569505,0.033218365,-0.025883354,0.036363006,-0.032212086,-0.030037053,-0.03431664,0.023953365,-0.0038771275,0.020900792,0.012455558,0.015573648,0.004658546,-0.0010302556,-0.0068581905,-0.034018334,0.013381556,0.02641185,-0.0030970273,0.008122968,-0.029049894,-0.01965291,-0.006010208,-0.016294515,-0.002035677,0.036120996,-0.035629302,0.019096171,0.015950797,-0.03384371,0.030232329,0.008683405,0.020412035,-0.02280163,0.009863043,0.028239839,0.0055979835,-0.011519598,0.015267056,0.03450689,0.015833545,-0.0056031817,0.009154793,-0.022903876,-0.03311379,0.035207044,0.034064647,0.030358205,0.0018381816,-0.013005569,0.0033263504,0.0195638,-0.012120803,0.022249328,0.012244333,},
{-0.018048577,-0.00198652,-0.029090943,-0.0043618605,0.0351253,0.0010277149,-0.029730514,-0.01972146,0.035817206,0.03437827,0.009016114,-0.012647413,0.029123569,-0.011919552,-0.022440705,0.010173359,-0.005751221,0.020443281,-0.02775316,-0.011142891,-0.031555496,0.02923094,-0.024463605,-0.010381069,-0.003170932,-0.030862782,0.014241917,-0.014590898,0.034481905,-0.03496815,-0.012636301,0.020611946,-0.03133986,0.029422222,-0.014650152,0.016456762,0.0022315506,-0.026037142,0.015753277,0.0115558915,-0.011922604,0.032972742,0.017606815,-0.011028765,-0.006760167,-0.016839487,0.03488437,0.013124324,-0.0020208058,-0.030933104,0.019677883,0.0070082545,-0.007737229,-0.019380223,-0.030852493,0.018168574,0.010865733,-0.0020618467,-0.013805248,0.012266145,0.031507093,0.0026894202,0.01536958,0.014886694,0.005547942,0.017713353,-0.018977437,0.02182675,-0.03356865,0.02291335,-0.01031303,0.012826395,-0.021429192,-0.019320643,-0.017668601,-0.0359932,-0.006051418,-0.019992296,0.029066212,-0.007889613,0.0045456467,0.027437055,-0.0082448935,-0.0017639735,},
};
PROGMEM const float percieve_kernel_north_damage[28][84]  = {{0.033600055,-0.005277036,0.033638217,-0.01410453,-0.033685755,0.023491103,-0.01641541,-0.014277629,0.029836137,0.025485614,-0.017792886,0.03451538,-0.03392018,-0.027705532,0.03358948,0.021934247,0.026992379,-0.0026144362,0.031169018,0.004288394,0.029176403,-0.027315987,0.0356195,0.025217388,-0.0068179,-0.03217472,0.0075606923,-0.004278435,0.009555909,0.027727766,-0.0149720665,0.012029456,-0.012347966,0.027812725,-0.017523363,0.013687133,0.009281925,-0.030350717,-0.014323587,0.0055085616,-0.010325374,-0.008868829,0.013010069,0.02465817,-0.033680122,0.033144005,-0.0012362573,-0.01250485,0.018155511,-0.013812068,-0.032874096,0.008577048,-0.013201503,0.026921414,0.011303776,-0.025271045,0.023838788,0.0318175,-0.0030327565,0.008199383,0.033309583,0.026395623,-0.023089724,-0.015533895,-0.015837742,0.00029317327,0.0026653793,-0.0038686602,0.007504156,0.032731455,-0.025398305,-0.024693873,0.007944372,-0.0012955769,0.02850076,-0.012743031,-0.027475854,-0.029968955,0.030286208,-0.0010174266,0.007759271,-0.011319003,0.025612192,0.003572218,},
{0.00044908145,-0.006651274,0.016001815,0.029387932,-0.016532883,-0.032267876,0.016886719,-0.035024267,-0.0026020536,0.021095712,-0.02132512,-0.0131957885,0.005992198,-0.0034064115,0.033743095,0.034703802,0.030044204,-0.02118303,-0.029030249,-0.009612849,-0.012760039,0.013601497,0.034380153,-0.03262339,0.006541961,-0.02051804,-0.00459016,0.0001637426,0.022432078,-0.0040597213,0.00993354,-0.03268584,-0.03617013,-0.017394414,0.021858824,0.03567952,-0.010061332,0.00763859,0.013137813,0.03145873,0.0065038376,-0.000292679,0.026088294,0.00209853,0.012383444,0.03054095,-0.031573173,-0.021960372,0.0054225693,-0.021999571,-0.014088705,-0.025229562,-0.004965714,0.026841005,0.031249244,0.025937032,0.032569606,-0.030934302,-0.027256291,0.021236831,-0.0054642954,-0.024792638,-0.024717381,-0.0071478304,-0.007413243,-0.033978887,0.009160255,-0.021537911,-0.00045506455,-0.0060012853,-0.012096605,-0.003848027,0.013030853,0.023187382,0.006679438,0.004440916,0.0059815887,0.0033876079,0.025498193,-0.020895377,-0.032089688,-0.007952327,0.013667446,0.03505766,},
{-0.022312684,0.012110969,0.029215757,0.0046261502,-0.03086419,-0.00955962,0.0024239125,-0.02011772,0.017611133,0.027784526,0.008251717,0.012729183,0.009100953,0.025646282,0.03059801,-0.014881942,0.012155877,-0.009391161,-0.019033557,-0.014869659,0.032515954,-0.0026481021,-0.008126171,-0.004801976,-0.03245798,0.002991343,0.02554121,-0.014400734,-0.03462986,0.01952289,0.002481524,-0.007954833,-0.011269282,0.019544845,0.002901561,-0.0064961854,0.023330674,0.03075326,0.025133481,-0.011567341,0.027470257,0.030076316,-0.008062616,0.025995538,-0.0023056937,-0.024574323,0.010465687,-0.008646999,0.013612509,-0.015412603,-0.032586444,-0.0062611396,0.027161652,0.01235851,0.0007205507,0.0023637386,0.0035551963,-0.0059737545,0.005784033,-0.027019138,-0.01260799,0.028787486,-0.02702506,-0.023233809,-0.0150162075,-0.016016968,0.00014445352,0.00745434,-0.018954974,-0.012378649,0.01748162,-0.0047364044,-0.03285932,0.022875804,-0.0030355486,-0.02276878,0.02292334,-0.011824221,0.027229175,0.0059336196,-0.03141542,0.024311937,-0.02404003,0.033448134,},
{-0.013012753,-0.030710354,0.027742406,0.024679245,0.029150298,-0.02891829,-0.018578488,-0.009251021,-0.01194965,-0.004323781,0.023166727,0.025874782,0.0048550917,-0.011760093,-0.013526117,-0.009970059,0.009758165,-0.0037040678,0.023941595,-0.034925155,-0.024544304,0.012162077,0.01606566,-2.891845e-06,0.003625164,0.01837803,0.03253133,0.009633127,-0.015692608,-0.031964127,-0.010756806,-0.003958381,-0.023474569,0.0191353,0.029056344,-0.027429944,0.017627444,0.030978803,0.0037330468,0.024692113,-0.024131265,0.0035858403,0.0064597665,0.027216801,-0.03565765,0.030626295,0.016454339,0.016865106,0.016165474,0.004098386,-0.0131365685,0.022211295,-0.016807387,-0.013238034,0.030193724,0.013303831,0.013851149,0.03222875,-0.027037693,0.021122918,-0.012025497,0.0015413491,0.023035081,-0.0040413425,-0.029280543,-0.028355915,-0.016572623,0.008949901,-0.027490625,-0.028651604,-0.021802016,0.015103296,0.026803996,-0.034887023,0.011612297,-0.016395673,-0.026945874,0.028318115,-0.011953986,0.03018988,0.026366357,0.026933635,-0.023711933,-0.027055414,},
{-0.018850729,-0.017348249,-0.030515568,0.015712097,0.035712164,-0.03039856,-0.027770268,0.010917743,0.012778543,0.0016894878,-0.012044834,0.022316694,-0.00047705907,0.025887854,0.022626339,0.015474753,-0.014712321,-0.025882097,-0.02195174,-0.0104476465,0.0022340002,0.0013266979,0.022666954,0.022925928,-0.034491822,0.009818456,-0.010225634,0.0069303135,-0.0075770593,0.011649961,-0.033171974,0.032088805,0.031618193,-0.007700112,-0.0267644,0.0002512697,-0.0060756714,-0.0010742446,-0.032416854,-0.032503434,0.01987895,0.026524663,-0.019529913,0.017004224,-0.028627064,0.020880686,-0.02078905,0.02590061,0.019640652,-0.02596295,0.03210369,0.016283307,-0.035268296,-0.014694657,-0.0002049438,0.0025630333,0.025925837,0.033625074,0.010836602,-0.0039135553,-0.031716183,0.011683471,-0.014929456,0.015681176,0.0033902917,-0.0065732333,-0.029434722,-0.026061334,-0.03560557,0.013319504,0.028578103,-0.021199575,-0.0035914332,0.023386061,5.884276e-05,-0.009390129,-0.010059927,0.007990918,-0.016337944,0.011207222,-0.0050251423,0.030469552,-0.01102152,-0.020809783,},
{-0.006114492,0.022252675,0.008112376,0.035111677,-0.022347251,-0.03300256,0.026547614,-0.0012831251,0.010606256,-0.005784562,-0.020438654,-0.008146501,0.019088272,-0.02844512,-0.026691068,0.030531337,0.008933681,0.020966575,-0.019828493,0.012583441,-0.01114028,-0.030419203,-0.034469083,-0.01339977,0.02778927,-0.014930167,-0.0048541506,0.030938473,0.018240156,0.00726585,-0.030966107,0.014507004,-0.010820859,-0.029823348,-0.024279945,0.035428993,-0.032803673,0.03455205,0.0019048632,0.004186282,-0.017420748,-0.028323703,0.01836225,0.032065976,-0.025819333,0.0054854876,0.015579475,-0.014024977,-0.032880083,0.004196891,-0.03412071,0.027147094,0.033697184,-0.030225102,-0.006906056,-0.002162788,0.01627368,0.010303522,0.015523963,-0.02537719,-0.032671157,0.0070492085,0.013073403,-0.008771335,-0.028665395,-0.0038417447,-0.03457654,-0.03625415,0.030124763,0.012723156,0.018024724,-0.024688609,-0.0003791612,0.03042607,-0.03226999,-0.015220609,-0.0076422924,-0.027039051,0.016323963,-0.0035738654,-0.022406155,-0.022614524,0.029894771,-0.018761,},
{-0.031822514,0.033299353,0.02330721,-0.031412788,0.009915317,0.027224936,0.0023223727,0.02452557,-0.0012505344,-0.036224138,-0.02258381,-0.0241881,0.020061037,0.032046825,-0.02304207,-0.031037029,-0.018453207,0.004015242,0.00397467,-0.006249225,-0.002867401,0.021326981,-0.035445843,-0.015292164,0.0071611973,-0.018330595,0.011537755,-0.025308106,0.011335157,0.0014974729,0.014844513,0.0025876032,-0.013335022,-0.033268414,0.0074746218,-0.017388638,0.018212363,0.03251386,-0.008832718,-0.018966688,0.023133127,0.023281487,-0.03258432,0.016217822,-0.018293768,0.03220285,-0.002343977,0.034448124,0.033660274,-0.028007524,0.010749881,0.030461859,-0.013384313,-0.013301955,0.020857258,-0.011521774,0.011516437,0.020064436,-0.02863769,-0.025838776,0.015569941,-0.0053644856,-0.025465887,0.0157925,0.021107009,-0.03052529,-0.026291598,0.022970906,0.011191948,0.025900189,0.015776254,-0.018236704,-0.02073052,-0.0043042535,0.03041158,-0.034146775,-0.019987727,0.0024282525,0.031828377,-0.018970158,-0.026482638,-0.003102217,-0.016583344,0.030859448,},
{0.018485527,-0.004106975,0.005861354,0.014498458,0.004868961,0.016893981,-0.036246493,-0.015190372,-0.03276683,0.024985828,0.025442671,0.016511628,-0.017620107,-0.031122457,0.026223581,0.009304769,-0.008183696,-0.02335092,0.006112368,-9.070075e-06,-0.024948837,0.010827441,-0.012435823,0.018559953,-0.027173866,0.00078361196,-0.030437471,-0.028861742,-0.01641563,0.014552623,-0.0057560983,-0.009241544,-0.022935372,-0.019923842,0.025736593,0.026457977,-0.029731546,0.022004297,-0.027091542,0.024427373,-0.023846498,-0.017388687,0.0046936423,0.011614382,-0.017148828,-0.027129292,0.02058332,-0.008580243,-0.027039228,-0.034926254,0.014537214,0.0033592575,-0.030141741,0.010429841,-0.025709586,-0.017665783,-0.033116594,-0.02864801,0.0026199205,-0.03620629,-0.01961264,0.0030122576,0.02078488,0.018274328,-0.016514394,0.0295161,0.03568362,0.010026335,-0.014845081,0.0114446,-0.017313438,0.0068725934,0.030986905,-0.030391332,-0.0044194027,0.004652619,-0.0045711226,0.015852688,-0.030489776,-0.03333682,0.0072669596,-0.013336631,-0.03546983,0.004328628,},
{-0.025554681,0.029567868,-0.007444615,0.01973023,0.029332211,0.014517374,-0.029421931,-0.0038734248,0.013914817,0.007275202,-0.03200671,0.025593366,-0.029864103,0.016792923,0.009879804,0.02587101,-0.01844388,-0.008294098,-0.011274676,0.036281172,0.02944477,-0.002884197,9.958006e-05,-0.029972482,-0.014730778,-0.017792132,0.002856163,-0.003591715,0.019601615,0.010065819,0.009107032,-0.018663405,0.018463772,-0.030003062,0.0014087014,-0.004237351,0.009949044,0.00983996,0.0022881606,-0.014318731,-0.015059697,-0.02779217,-0.021710634,-0.032647233,0.034652576,-0.034679897,-0.0013423581,-0.015253542,-0.008539129,0.024659688,0.012836497,-0.013106241,-0.030080315,-0.028647026,-0.022770038,0.027987923,0.034507833,0.0072800834,0.0069486657,0.0033753815,-0.036171213,0.031078799,0.026052285,-0.018528411,-0.014653421,0.0012668666,-0.022688072,-0.00737293,-0.030211613,0.017214118,0.015173316,-0.0067691896,0.031505093,0.03384409,0.014931438,0.033684183,0.0061728363,-0.019500038,0.034967568,-0.008488935,-0.034936573,-0.034681946,-0.03455049,0.027373105,},
{0.014559352,0.016394386,0.004173145,0.004774354,0.018310683,-0.009626445,-0.013898373,0.01060434,0.014864743,0.016359895,-0.032167807,0.01661162,0.0167642,0.0075986288,0.02111369,-0.008893651,0.024606034,-0.019912712,-0.029973798,0.002272145,0.0032748347,0.017289266,-0.032798268,-0.027531622,-0.0031017098,-5.754642e-05,0.016441163,0.02032974,-0.025035687,0.0075452616,0.014599452,0.030920055,0.0074778907,0.02383998,-0.028298257,-0.021945624,0.029155284,-0.004373103,-0.018117974,0.028746346,0.029959792,-0.012938717,0.0037965071,-0.034889903,0.03042323,-0.025865898,0.034067977,-0.03449196,-0.016629428,0.006720661,0.022962274,-0.009585105,-0.030490132,-0.003685572,-0.00032306722,0.028814297,0.010960349,0.02736129,-0.01376892,-0.03345917,-0.027850047,0.029017767,0.0018688083,-0.029631978,0.035046674,0.009515384,-0.025072591,0.03430925,-0.028511213,-0.035665497,0.0024565768,0.030784568,-0.010628237,0.020665789,0.0031798373,0.03131298,-0.01334871,0.033249844,-0.0072851735,0.0007311859,0.017640017,0.033551928,0.008352784,0.034438767,},
{-0.016641367,-0.019525621,-0.025977219,-0.035474185,0.01062222,-0.029770544,0.0046992223,-0.008471277,-0.0063003595,-0.032360565,-0.0223932,-0.03338931,0.018441968,0.014664256,0.031727586,-0.009366496,0.0073791128,0.009171463,0.019816848,-0.006110664,-0.034526173,0.028165119,-0.025470959,0.03578141,-0.014979194,-0.0061458647,0.0097223185,0.0034641789,-0.013128192,0.020469742,0.022867475,-0.0062024095,-0.008206133,0.023888994,-0.03243731,-0.021012107,0.015178658,0.016952118,0.0028244785,0.013556138,0.018322162,0.0073408685,0.022681527,0.011837571,0.0151362335,-0.017179698,0.009469635,-0.015925331,0.016592719,-0.026812186,-0.029544577,-0.035520032,-0.0088168625,0.031758025,-0.017156541,-0.027247585,0.010637104,-0.012533898,0.033097774,0.027821045,-0.02648588,-0.01472094,0.030472608,-0.004389201,-0.013868643,0.01057523,0.019618671,0.014979164,0.023146927,-0.0027334527,0.010686521,-0.033524778,0.01282287,-0.023677738,0.00860219,0.028410072,0.018313106,-0.0066417707,-0.006492435,0.025193134,0.02173115,-0.01996917,-0.030832523,0.0010444373,},
{0.028543102,0.0059862365,-0.008422501,-0.011128033,0.010206908,-0.033943746,0.022759896,-0.023195641,-0.001551412,0.017850146,0.020354172,-0.0028966924,0.018590745,0.0002941271,-0.031412564,0.03474554,-7.40217e-05,-0.02016195,-0.035549097,-0.026373623,-0.0021969439,0.000867185,0.002566558,-0.031726245,-0.00017004657,0.020421447,0.0060469173,0.014922211,-0.018396892,-0.02611415,0.021089463,-0.01739199,-0.007816956,0.030236352,-0.0001645707,-0.01912727,0.009807755,0.005246791,0.02269472,0.0059660934,0.006102647,0.006342111,0.016045878,0.020161888,-0.009260182,0.024349848,0.032152068,0.015166535,0.011827348,-0.008940584,-0.0032941063,0.036068246,-0.02698861,0.024666702,-0.024424342,0.03567438,0.019369349,0.023437936,-0.034910865,0.023833716,0.013197093,0.02948944,0.005679033,0.024381338,-0.0104841655,0.02160526,-0.016476693,-0.0047069527,-0.010900175,-0.024112968,-0.020620326,-0.0018034665,0.015731148,0.005388097,0.014625405,0.025994953,-0.015380042,0.035721693,0.0049212226,-0.024769677,0.010294839,-0.0076894984,0.013672249,-0.01511832,},
{0.0046576094,0.0030545646,0.015044848,-0.009268103,-0.03434648,-0.00315525,0.008236209,-0.013145856,0.0316742,0.008654833,-0.0019881413,-0.026269356,-0.016230075,0.020071603,-0.0077879555,0.0029616093,0.010753992,-0.030408887,-0.009551912,0.009243018,0.03203992,-0.025824,-0.03214845,0.021830326,0.018056555,-0.0016707624,0.028643548,-0.014039986,0.010353357,-0.00529457,-0.03336751,-0.010185547,0.012337171,0.03508164,0.009944487,0.0050227274,-0.033013817,0.006181603,0.008760023,-0.008902703,0.0039734473,0.015591047,-0.0028842015,-0.017866634,-0.0031225684,-0.010819173,0.006605707,0.010902629,-0.016118806,-0.027755335,-0.0028454931,0.035324767,-0.021333171,0.017829709,0.01122789,0.036369562,0.032794207,0.011951051,0.0049765795,0.01844698,-0.015209172,-0.03222148,-0.028751496,-0.021006202,-0.018199144,0.031515263,0.018593268,0.00012636973,0.030747464,-0.015261502,-0.01907761,-0.0033740115,-0.017042328,-0.027655812,-0.031740174,-0.00920933,-0.015583542,0.010142832,0.0007060481,0.013229446,0.0019436667,0.026294922,0.027832942,0.035567567,},
{0.0061820713,0.012062744,0.017711572,-0.01898134,0.012329028,0.023359202,-0.007683225,0.025259946,0.009269486,-0.025164237,0.0017934296,-0.032514267,-0.034474842,-0.026652068,0.015210524,-0.011522039,-0.031508777,-0.004597379,-0.030764684,0.03531707,0.022004692,0.0028550185,-0.0012143408,-0.008214596,-0.033816136,-0.008209614,-0.0031936723,-0.0071756346,0.02985426,-0.0203766,-0.03545488,0.026209963,-0.028024733,-0.016293058,0.016596582,0.027704123,0.02901243,0.022575138,-0.023782972,-0.008624553,-0.016857566,0.032009088,0.009913887,0.022885777,0.0151281,-0.007043516,-0.014883009,-0.026296284,0.01902453,-0.034565978,-0.019250216,-0.022668475,-0.029344147,0.028678082,-0.02148373,-0.031439777,-0.0027567868,0.035435494,-0.011254312,-0.010663486,0.013505714,0.0155328065,0.006194896,-0.012630222,0.01835507,-0.021770326,0.032208946,-0.029290212,-0.008254549,-0.018499488,0.015857538,0.025080236,0.0011094237,0.029463531,-0.032883726,-0.01555817,-0.005964489,-0.016212689,-0.032681294,-0.019372948,-0.027487846,-0.012257408,-0.032135636,-0.035265394,},
{0.030846285,-0.02296025,-0.019636469,-0.033675723,0.025431983,-0.028478835,0.0009995336,0.032959934,0.012583168,0.032441493,-0.013369421,0.009309591,0.018461362,-0.012174473,0.006579494,0.011989711,0.013094787,-0.009882922,0.015499032,-0.011087018,-0.021459432,0.014994833,-0.028995408,0.00860493,0.028213616,-0.01811875,-0.0050911647,-0.029964693,-0.02775509,0.005667704,0.011679065,0.0059219957,0.008014334,0.0052543525,0.0004335947,-0.035030276,0.0271928,0.019267665,0.03091803,-0.0033192877,0.026574336,-0.035049073,-0.03589983,-0.022919087,0.018706439,-0.0068805926,-0.0027358718,0.03442939,0.0337743,-0.01398355,-0.035796743,-0.022519609,-0.030512322,0.022753112,0.034501612,0.013640001,0.026640015,0.029661512,0.016501814,-0.024874441,0.029950593,-0.02254032,-0.02560173,0.025532769,-0.033427604,-0.010223848,0.018258989,0.024561381,0.033750422,0.005218471,0.007064591,0.025796771,0.029676067,-0.035335947,0.009524849,-0.01836407,0.020257397,0.033404473,0.0082488125,-0.005478373,-0.02224761,0.035889212,-0.021626787,-0.034519643,},
{0.003801996,-0.01885727,-0.020941328,-0.00022505232,0.022713605,0.024046442,-0.035205904,0.012029482,0.0025023175,0.020012414,0.008041892,0.03607228,-0.018666102,0.0134955775,0.03164375,-0.021894293,-0.033272345,0.020788243,0.030303897,-0.011789606,0.022086803,-0.032104548,0.0050960598,-0.0113704875,-0.012837746,-0.0025822616,0.01122404,-0.018532326,-0.022290494,0.032977924,0.019563219,0.03407753,0.028703826,-0.018494612,-0.0004919085,-0.002314482,-0.014135916,-0.01513342,-0.021332694,-0.033404697,0.0015160769,-0.005097677,0.012408313,-0.025642004,-0.0033184509,-0.004598441,0.011960108,-0.013215472,0.03480615,0.011507818,-0.013262782,0.032414805,0.030808369,0.035815664,-0.036275957,0.0068774535,-0.024057528,0.009153518,-0.0050578155,-0.015277293,-0.016236909,-0.009713131,0.025434377,-0.031060042,-0.02029881,-0.005095396,0.016922055,-0.004046667,0.028687412,0.020860141,-0.011757474,0.027075982,-0.021907218,-0.012536751,0.00617105,-0.010269878,-0.013048005,0.008788928,0.013195516,0.02036667,0.033873156,0.023390887,-0.0012506514,0.020460311,},
{0.0076079457,0.03225723,0.0033064543,0.031663842,-0.0037482693,0.009789364,-0.0025939373,-0.017106483,-0.023831189,0.029960308,0.004626137,-0.019422196,-0.03525118,-0.027912162,-0.028043345,0.00063476653,-0.019938432,-0.012174451,0.011436554,0.010035444,0.016982796,0.0033016156,0.022471732,-0.032148536,-0.029561022,0.031185376,-0.035246156,-0.01242044,-0.027621934,-0.0046048798,-0.030353257,-0.02768176,0.01709028,-0.0011874731,0.017926443,0.018824026,0.015668498,0.005207051,-0.005342864,-0.0008213837,-0.014662943,0.02047918,-0.01869587,-0.03586896,-0.011965562,-0.025083851,0.028279513,-0.030889714,0.02639049,0.012535538,0.02739474,0.0048671486,-0.019883573,-0.015568511,-0.017081462,0.033108328,0.0070088785,0.011926399,-0.020218875,-0.009157051,-0.029254915,0.019060537,-0.019650508,0.0027518226,0.030132284,-0.015326363,0.018894246,-0.012580918,-0.018539546,-0.03475975,-0.015186839,0.015353517,-0.029022407,-0.00392491,-0.0033898365,-0.010176663,-0.0052616145,0.0102292495,-0.0019613474,0.011311706,0.03283791,-0.032993846,0.01644376,-0.016716508,},
{0.02802941,-0.01723247,0.013689631,0.03547109,-0.029519314,0.03244075,-0.003993703,0.025440754,-0.027391305,-0.0018850538,0.008646036,0.010527439,-0.03301215,0.013002811,0.032672394,0.0115012275,-0.016919544,0.013024315,-0.0080592865,-0.0060393736,-0.017633969,0.032461844,-0.024586653,-0.022656552,0.034726147,-0.034497797,0.012081739,0.015379448,-0.018040422,0.022867683,0.020137278,-0.013014045,0.01723854,0.016009567,0.023398526,0.006744893,-0.025015322,0.027166825,-0.018680118,-0.0321899,-0.011905579,0.034900486,-0.026226057,-0.012999524,-0.004015988,-0.0042026746,-0.008676216,0.024014857,-0.033276882,-0.01808034,0.033456538,0.0043802825,-0.02085071,0.027870588,-0.014549462,-0.014153566,-0.0013389763,0.035561115,0.008242084,0.010044514,-0.01868098,-0.029574262,-0.0018009909,0.031741515,0.029630179,-0.026657635,0.013400125,0.012221289,-0.027398234,-0.009204153,0.022119572,-0.034074143,-0.0058687376,-0.014571088,0.015973845,0.011691491,0.028673086,0.025121992,-0.022278666,0.014703589,-0.023929602,-0.004392899,0.022995548,0.022961272,},
{0.0076765656,0.026057662,-0.034601152,-0.0043938616,-0.028642286,-0.008652912,0.0011865062,0.03546812,-0.032646485,-0.019274127,-0.010821744,-0.0124656,0.005059979,0.00053053,0.021710338,-0.028514564,-0.012690079,-0.036295727,0.033983685,0.019629993,0.029002527,0.004796457,0.036163475,-0.036197763,-0.03384523,0.033264313,-0.006566639,0.02969085,0.020169614,-0.031664863,-0.03428484,-0.025359882,-0.0048908126,-0.0189642,0.0073068687,-0.020904927,-0.010252727,0.016586684,-0.036061395,-0.00094333984,0.030331189,0.03443858,0.00021859662,0.0057540825,-0.011972577,-0.009327462,0.027759776,0.0150436945,-0.015140335,-0.017644128,0.03587499,-0.025865313,0.011077961,0.008645126,-0.02850899,0.01171813,-0.021220043,0.022124952,-0.026448209,0.021934345,-0.010898649,-0.026917472,-0.012062263,0.0062274043,-0.02984676,0.017107045,-0.028848713,-0.0072523616,0.010774881,-0.02536318,-0.00640271,-0.007338588,-0.0071950583,-0.02894237,0.019906074,-0.01891526,-0.019622894,0.031683024,0.022759072,-0.003519033,-0.028322155,0.012201072,-0.016591165,0.025596125,},
{-0.00923814,0.024275905,-0.024130072,0.0112290215,0.018524675,0.0106155425,-0.0149496775,0.0055506085,0.014364671,-0.009656812,0.0030809857,-0.028415969,0.018144013,0.017784588,-0.0069191447,0.007923495,0.026006429,-0.027258463,0.017128846,-0.002491886,0.026760979,-0.029500172,-0.0023893882,-0.015787758,-0.023819534,0.013552136,-0.031444844,0.03148088,0.0063359155,-0.012782151,-0.031111367,-0.012682883,0.012544369,-0.033097543,0.033488918,0.016112499,0.005140144,0.012915644,-0.036071006,0.023267161,0.015215757,0.03132916,0.020198554,0.019637628,-0.023864355,0.00043912255,-0.0084234765,0.0018555718,0.017360521,-0.030408887,0.028649094,-0.0064486414,0.0026345013,0.0063182046,-0.0124271605,-0.018919487,-0.03257449,0.013674673,0.0047645466,0.0039639524,0.024657223,-0.022903373,0.019769803,-0.024016604,-0.007444984,0.016952451,0.013569487,0.008674066,0.004705604,-0.03595833,0.007939181,0.03322573,-0.01048626,0.030558422,-0.0028339692,-0.031220745,0.03474126,0.0010193993,-0.0070160627,-0.014330467,-0.008364131,-0.0024982074,-0.018542182,-0.026094384,},
{-0.010466177,0.005115934,0.02875454,0.0050821295,0.0003233707,0.016304664,-0.018417481,0.026452089,0.023920497,0.010085689,-0.013397255,0.025459591,-0.005474605,-0.0071051465,0.016223017,0.012272956,-0.012887181,0.03061445,0.00043068983,0.02511666,0.027286934,0.016352283,-0.0035995971,0.012364853,-0.0011342276,-0.01146676,-0.0014382745,0.034590185,-0.029483302,0.007915886,-0.016782409,-0.008039624,-0.0013911509,-0.010531706,0.018686894,-0.008577213,0.031951733,-0.031835463,0.03167404,-0.02200531,0.027325993,0.008917982,0.008475321,1.6570662e-05,0.010733519,0.034543462,-0.03474261,-0.026808506,-0.012799991,-0.002998605,0.0023085508,-0.0052879923,0.011971748,0.014902029,0.031780966,-0.023680067,0.023405893,-0.006325575,-0.024814563,0.027421594,-0.027192783,0.029091498,-0.010127588,-0.0055930973,-0.028688839,-0.004043272,0.021251423,-0.020918354,0.02609353,0.02954443,-0.001518726,-0.019015009,-0.024678707,0.016311822,-0.0037378161,0.028569315,0.012111008,-0.005601725,-0.034740873,0.03432444,0.0078581795,0.021446994,-0.032646,-0.029671866,},
{-0.033850364,0.015063634,-0.03629936,-0.031469394,-0.011497972,-0.01891401,-0.033270523,-0.02505867,0.020510063,-0.0032745441,0.014724417,0.0051173996,0.026873153,0.01766532,0.027976265,0.01624762,-0.01581671,-0.015785499,-0.034327902,0.035317406,0.0011925545,-0.00934268,0.012832864,0.005989267,-0.008103926,-0.02654237,-0.009947804,-0.022861375,0.011391771,0.013829658,-0.031657286,-0.010165286,-0.018099448,0.0027154426,-0.002265312,-0.018338634,0.018713446,0.019367237,0.0038341747,0.024474362,-0.0058140308,-0.02199625,-0.016197901,0.021808466,-0.03423941,0.0021726775,0.02203071,0.022392988,0.028010398,0.018297624,0.008995125,-0.018890118,-0.0278822,0.00705468,0.008892133,-0.0022219906,-0.023384813,0.02213756,-0.021278547,0.03191734,0.032776628,0.012117061,0.029169777,0.034881223,-0.028700037,-0.024203438,0.034427494,0.012606481,-0.0050572734,-0.026326872,-0.030075705,-0.03140105,0.019766772,-0.019982355,-0.011226195,-0.00089404837,0.017636115,0.018338494,-0.007231811,0.03301115,0.004361462,0.009556828,-0.035687517,-0.034904625,},
{-0.017455459,-0.019847708,0.021663379,-0.023345731,0.00020418508,-0.013982817,0.0072518196,0.035097625,0.005389571,-0.021203196,-0.017086273,-0.024538368,0.03214401,-0.029197222,-0.008093329,-0.0008241845,-0.003984334,-0.0073652216,0.0032687865,-0.015305032,-0.014261062,-0.026094606,-0.016758831,0.019892698,0.016368415,-0.02780582,-0.01400378,-0.0018877506,0.007472801,0.021792749,0.017666694,-0.0021155907,0.006841455,-0.021020332,-0.0100421775,-0.022894625,0.01644305,-0.0073899953,-0.023017908,-0.02139217,0.0031893107,-0.030545147,-0.00676436,-0.020545997,-0.007893779,-0.033949763,-0.024173332,0.017029114,0.008634057,0.030347882,-0.015809093,0.008136247,-0.024160568,-0.0204502,-0.021244088,-0.008128911,-0.012584768,-0.02393803,0.02559785,0.029735213,-0.032263823,-0.00896876,0.010370031,0.014699322,-0.033028603,0.02068569,-0.005087575,0.034792796,0.030924758,-0.013611152,0.0029074012,-0.015628958,0.033916604,0.014522937,-0.027139226,0.016276848,-0.020699862,0.024836667,-0.01873658,0.0007257317,0.016581107,-0.008559489,-0.03421773,0.021801863,},
{0.0032933606,0.026261339,0.019983487,-0.028616304,-0.010198844,-0.013254388,-0.0068759625,-0.026127262,-0.02844339,-0.034673,0.004646289,-0.008502497,-0.0062109074,0.0076324423,-0.03184755,-0.026339823,-0.03409632,0.025869584,-0.021354472,0.0034025917,-0.01593946,0.02361469,-0.035365734,0.0328433,-0.012897681,-0.007586858,-0.0026329795,0.022039901,0.019060208,-0.02727969,0.01514882,-0.010118028,0.0051542087,-0.021226672,-0.036292657,-0.0045586405,-0.026959289,-0.03630917,0.025632821,0.025524374,-0.0034006408,-0.014203182,-0.017564313,-0.03406765,0.00063248165,-0.022370446,-0.034513988,0.03570048,-0.024376372,0.03286657,-0.014488135,-0.030591607,0.015011525,0.027607024,-0.015131326,-0.0027930108,-0.0024917603,-0.03260734,-0.03579052,-0.0031152412,0.021937719,-0.03297683,0.022199152,-0.033233628,-0.018193027,-0.011979935,-0.0058903242,0.004774228,-0.03446089,0.028452175,-0.02949143,0.0021389206,0.030016702,0.026311664,0.00011633281,-0.0007858058,0.028838906,-0.029821457,0.02211035,0.0116692325,0.0040172064,0.024426632,0.028188167,0.019020082,},
{-0.033103723,-0.035233345,-0.02111075,0.023603348,-0.029681256,-0.0019943542,0.012974144,-0.033251908,0.027105339,-0.019008957,-0.03453155,0.007447481,0.012959671,0.017153597,0.00072521577,-0.014007924,0.028403318,-0.02815546,-0.0054134084,0.0016878707,-0.009840992,-0.018698484,-0.023032866,-0.013620898,0.0178094,-0.017730543,-0.019800555,-0.034465253,-0.029185606,-0.014620393,0.01082184,-0.009143004,0.0025787975,-0.035229903,0.03038159,-0.023170251,0.0024404181,0.03440222,-0.028155295,-0.004199241,-0.009272539,0.019240802,0.012166417,-0.009139097,-0.020043226,0.013016793,-0.031255852,-0.011120874,0.008262231,0.02941425,0.01304794,0.03151344,0.013406369,0.030015437,-0.0321484,0.015214847,-0.031164113,-0.03359208,-0.018581353,0.0044497433,0.012683741,-0.019817285,-0.010301594,0.025257796,-0.023865608,-0.013362761,-0.0058664437,-0.016923511,0.013427227,0.02546303,0.00028171428,-0.028862664,0.0017178818,0.01690717,-0.032203224,-0.0069702137,-0.029806815,0.009018655,-0.023149615,-0.019859973,-0.0018900874,-0.010298242,-0.019639496,-0.008905834,},
{-0.003700608,-0.02998823,-0.013459705,-0.028689241,0.02811898,-0.007635815,-0.017984407,0.012659765,-0.01030684,0.0020484712,0.028234402,8.3681414e-05,0.005702142,-0.002086464,-0.02912095,0.010363245,0.019035308,0.0047476813,0.028008807,0.036299434,-0.017124398,0.008895207,0.02265292,-0.008001939,-0.019907791,-0.026293393,-0.028449807,-0.026741434,-0.02892861,-0.019171402,-0.031895176,-0.028804021,0.021368073,-0.0012091771,-0.012562128,-0.011895291,-0.03076246,-0.0007513725,-0.011078719,0.033394873,0.0024823693,0.03411194,-0.027571289,-0.029101657,-0.021501336,-0.012319486,-0.02149552,-0.028826958,-0.00019009004,0.027051091,0.005604955,-0.014923829,0.020379556,0.0017391045,-0.031830873,-0.004948411,-0.0033550085,0.022135977,-0.01658752,0.023755021,-0.013805053,-0.009365299,-0.035815734,0.020858675,-0.023776928,-0.017860256,0.034935635,-0.0009738234,0.02790377,-0.02967095,-0.01738671,-0.028692987,0.035754006,-0.007882025,-0.022817265,0.020646222,-0.005664422,-0.031304386,-0.036226396,-0.029271847,-0.033310533,-0.026118616,-0.013477035,0.028490163,},
{-0.015481469,-0.015591567,-0.020830523,0.001902704,-0.0008080561,0.023419831,-0.0065715425,-0.01023277,0.026829664,0.019347414,-0.012253416,-0.019424636,-0.012356369,-0.011718216,-0.027411189,-0.0080928225,-0.02848088,0.009719548,-0.015427833,-0.014799657,-0.02149345,0.027972007,0.014867119,-0.02020145,0.0052999067,-0.021058286,0.029095517,0.0078013656,-0.0047523594,-0.022803478,0.0016756053,0.03628697,-0.00083149003,0.008825712,0.008705156,-0.0075247586,-0.02055073,0.0114356475,0.032409526,0.002109343,0.0066913827,-0.0047928714,-0.022968352,-0.014788063,0.02181265,0.024823517,0.021466145,-0.024485972,-0.007772647,0.0045555187,-0.03413928,0.02852503,-0.004677323,0.022728676,0.028864043,-0.0283848,-0.02365759,0.01829513,-0.030667882,0.014414135,-0.003959838,-0.030435404,-0.032421485,-0.025982074,-0.010110363,-0.018762136,-0.01765252,-0.016205072,0.032841675,0.0342314,0.0008441326,0.033534553,0.00613552,-0.02637631,0.02151234,-0.0064757257,-0.034211393,0.027357033,0.032241326,-0.025400173,-0.015963526,0.02196495,0.011715624,0.021440351,},
{0.024230631,-0.0362355,0.025642043,0.02197527,0.032247834,0.024964636,-0.027909782,0.01103349,-0.029104171,-0.018276904,0.019672533,-0.019417405,-0.03534672,-0.019491995,-0.028981071,-0.0043628057,0.000992189,0.02733526,-0.008690059,-0.012735928,0.017016176,-0.0058497125,5.9085556e-05,-0.027237855,-0.027001271,0.011592974,-0.011972564,-0.029099368,0.0010818059,0.022269964,-0.03438019,-0.031963255,-0.0139005575,0.022437038,0.015878467,0.020178111,0.01109633,-0.032753225,-0.0020494945,0.011216171,0.0020787164,-0.023637934,-0.0101923365,0.02451933,0.011627914,0.013509001,0.0033424918,-0.005657806,0.017337942,-0.030363753,0.0035058095,-0.029095296,-0.018559307,-0.027790159,-0.03603328,0.026128376,0.0056114583,0.014416741,-0.020105481,-0.019566037,-0.026328767,0.020182379,-0.0042353263,0.029738642,0.02368109,0.02779701,-0.0053279884,0.0075826566,-0.016890418,0.00045868912,0.008239344,-0.01572311,-0.026830213,0.030738978,0.023798762,0.011898594,0.01598436,0.023274848,0.029801145,-0.028418401,0.035115596,0.006832021,-0.032573145,0.008584874,},
};
PROGMEM const float percieve_kernel_south_damage[28][84]  = {{0.006863931,0.005991747,0.017040338,0.025549607,-0.015986059,-0.010261034,-0.013311518,0.0015966323,0.027490994,-0.010554758,-0.015779268,0.01825592,0.03344694,-0.02161058,0.009615632,0.00587505,-0.0050783055,-0.0077555343,-0.0051000398,0.02236544,-0.020398816,-0.018809384,0.021881226,0.027390672,0.0029059402,0.02887215,0.022900071,-0.0152650615,0.023011876,-0.023388546,-0.017942,0.026105292,-0.02350057,0.03137648,0.015628949,0.03255105,0.027175063,-0.009295761,-0.025200207,0.029371798,-0.025481435,0.020825928,0.003009418,-0.0018110755,0.018942188,0.020640595,0.031107517,0.002285867,0.010322417,0.033237036,0.00097038096,0.0017964948,0.017780464,-0.015983362,-0.014781816,-0.008525835,-0.036321595,-0.020141814,-0.030865239,-0.014080389,-0.008041424,0.007276719,-0.014812243,-0.0081118075,0.010909375,-0.003004098,-0.026165823,-0.030466342,0.009644286,-0.015425739,0.033303283,-0.030365787,0.03603172,-0.018650189,0.0036032086,-0.034381308,-0.014292557,0.00038928483,0.033131406,-0.0055045644,-0.0003319292,0.0070408233,-0.009101157,-0.0350605,},
{0.033783954,-0.018932281,-0.006363091,-0.01806997,0.024625536,-0.010501768,0.013123766,0.00052831887,0.02404713,-0.014163187,0.028519714,-0.013452205,0.005905512,0.014435262,0.034016047,0.0047642216,-0.0028911515,-0.015172401,-0.02584455,0.013323715,-0.0052659414,0.0014775291,0.02478209,-0.028518874,0.0038136716,0.028648019,-0.015296863,-0.0011271649,-0.012489042,-0.007873046,-0.031085635,-0.012443332,-0.010992827,-0.030861069,0.020183662,0.00071109907,-0.011301908,-0.003318997,0.014117767,0.024258371,-0.006494204,0.0118502695,-0.005067128,0.022585878,-0.026797216,0.029923331,0.015676329,0.0003778215,-0.03210839,0.012822914,0.01308814,-0.03352046,0.033514947,-0.011334554,0.004035039,-0.0054925545,-0.02024426,0.009154393,0.02859228,0.027452074,0.03057168,-0.019191394,-0.013282487,-0.006560521,-0.024311438,0.0010248665,-0.029256273,-0.016455812,-0.0025890728,-0.0023916427,-0.006859734,0.032373287,0.007087648,-0.0070492476,0.0036114247,-0.012038474,0.011719348,-0.011080861,0.023716988,0.00046305073,-0.015104229,0.0033179522,0.019018013,0.006105786,},
{0.003812423,0.028122898,0.006594053,0.00348897,0.004289426,0.023483919,-0.015717672,0.030770775,0.009000771,0.011999778,-0.02412317,-0.034374714,0.0270418,-0.010783903,0.022722468,0.018591655,0.029160382,0.03070014,0.031894673,-0.00014192586,-0.032300714,0.0028501756,0.0324093,-0.025953598,-0.008516089,0.005543216,-0.027625455,-0.016774384,-0.0045117987,0.01552009,0.025483416,-0.02568943,0.0023551455,-0.008367218,0.004593455,-0.0036172993,-0.034442317,0.018805014,-0.029438866,0.015876576,0.010346731,0.010500208,-0.0031100297,-0.026956085,0.01172945,-0.009949725,0.028877571,-0.03408801,-0.0127005195,-0.019367684,-0.031667702,-0.025841055,0.02649955,0.011082453,0.017779602,-0.027911503,-0.018655522,-0.025028182,0.029011017,0.019305984,-0.03490582,-0.01994496,0.00065946206,0.016536685,-0.017725488,-0.029730942,0.023394542,-0.027995944,-0.012197192,-0.0040061595,-0.004019179,0.02305711,-0.035115287,0.01675584,0.0047629424,0.0072535193,0.01233251,-0.03571431,0.023280753,-0.012769139,-0.031750698,0.00045755753,-0.009084521,0.030242985,},
{-0.027862672,0.033036605,-0.025432734,-0.032341782,0.022591515,0.02600619,-0.03441201,0.006609726,-0.018462371,-0.0047349823,-0.0030388306,-0.02746355,-0.03514994,0.019785592,0.02031529,0.0011799812,0.0036009066,-0.0036347632,-0.008175333,0.01722317,0.008544717,-0.013281239,0.01649403,-0.028146861,-0.013911721,0.0112623535,-0.011477039,-0.030621553,-0.0036590425,0.035750788,0.028490141,0.020321937,0.02949913,0.036149878,-0.02562417,0.01930869,-0.035290718,-0.0044107446,-0.00035616953,0.024571817,-0.012339594,-0.031519238,0.031899437,-0.035568636,0.014813964,-0.004724811,-0.027803361,0.033246133,0.0011165687,-0.029732134,0.015241438,0.034580417,-0.031569675,0.024335418,0.029138764,0.02044909,0.034634963,0.012048493,0.008516146,-0.0070049465,-0.027617546,0.012522466,0.017350372,0.023273595,0.009834927,-0.004443097,0.01021691,0.0054524243,0.0044796374,-0.017448895,-0.0047678463,-0.02483608,-0.0342217,-0.0017671125,-0.028046923,-0.0037257674,-0.0344245,0.018503834,0.016445875,-0.03022262,0.025066445,-0.0008491012,0.002523241,0.0131030325,},
{0.009671228,-0.022820104,-0.011746142,-0.018770793,-0.033690948,-0.03251929,-0.013342987,0.027741393,0.03553253,-0.022560667,-0.0356793,-0.008742152,0.016478805,0.030601015,0.0007285976,-0.0106923785,0.0053615286,-0.0075096576,0.029488977,-0.013109397,-0.0060061845,0.035219163,-0.034846082,-0.031709157,0.017300822,0.027030649,-0.032123167,0.01792399,0.028101828,-0.010912818,0.03139517,-0.0056515583,-0.02538842,-0.012971192,0.03272002,-0.0031166764,0.0017589875,-0.036076512,-0.0027408926,0.00034444174,0.0045211767,0.016121794,-0.035503685,0.00762766,0.008556215,-0.029954534,-0.032812063,0.007821023,-0.020879503,-0.03239057,0.023838377,-0.0017635702,0.017534424,0.0095681315,0.029912084,0.026143992,-0.022042394,-0.012747253,-0.005895722,-0.013310135,-0.032332446,-0.0097317435,-0.03370176,-0.03160615,0.031545065,-0.035051692,0.00033763485,-0.017206062,-0.02957927,-0.006710984,0.03026687,-0.0027336,0.015244181,-0.008662442,-0.013129666,0.016765809,0.01876908,0.022705095,-0.01654272,0.02347244,-0.033389192,0.014257911,0.034744665,-0.019581022,},
{0.01059765,0.020748187,0.028426018,0.028734474,0.031240365,-0.021591678,0.002191585,0.024541441,0.024450455,-0.0045561907,0.0004906078,-0.0066211675,0.0023663833,-0.017393712,-0.028051956,-0.024854906,0.023667611,0.0032086386,0.0035849167,-0.02358653,-0.03260542,-0.00065933634,0.02337132,-0.006507397,0.028076869,0.021953775,-0.01980616,0.01939897,-0.012655126,0.008040183,-0.00078078517,-0.034421347,-0.0037271462,0.035595622,-0.031205047,-0.02034884,0.0282872,0.012607417,-0.030726869,0.002029347,0.014771727,0.03507217,-0.018204663,-0.032847952,0.032797482,0.0018047325,0.0030207252,0.035834122,-0.031914268,-0.019365927,-0.013915971,-0.024652958,0.02267674,-0.011436575,0.008210768,0.028184595,0.030133095,0.022412373,0.016120102,0.0015525956,-0.008400173,0.0021739088,-0.0009741009,0.03006598,-0.024485894,-0.020500178,0.0059975395,-0.024925048,-0.019226795,0.008583768,-0.031654336,0.016117381,-0.035176426,-0.0056344243,-0.020148756,-0.034002483,-0.013651183,-0.025794083,0.0040284228,-0.022379652,-0.035443753,-0.009063815,0.02938311,-0.022315696,},
{0.008827815,0.031133696,-0.010378212,-0.029386865,-0.026176292,0.030707879,-0.019050313,-4.6547e-05,-0.0083715925,-0.0042163664,-0.021268051,0.006853816,-0.033691425,0.009025878,0.01364627,-0.0054937513,0.014017641,0.02720018,-4.3958647e-05,-0.02134424,0.035738878,-0.02282666,0.017745845,-0.022914201,0.015928447,-0.006004056,0.008123028,0.0021294516,0.014464034,-0.017471166,0.028583579,-0.023264186,-0.02389362,-0.008616606,-0.030843332,0.011521046,0.028748387,0.01664308,0.0062970645,0.032388367,0.017341832,-0.0066231275,0.0055798865,-0.032006495,-0.0057497034,0.011852425,-0.029699184,-0.023298798,-0.026426079,0.027493756,0.0049331365,0.019220192,0.0105096325,0.030431177,0.014270614,-0.032098413,0.0038567416,-0.0020714325,0.034058332,-0.029670222,0.008401803,0.036104556,-0.021851359,-0.006920255,0.033159327,0.027049266,0.011153196,0.035262622,-0.033802167,0.006517131,0.03581342,-0.00982117,-0.024676466,-0.0077958507,-0.019417187,-0.0068925847,-0.034102347,-0.022902139,0.019026134,0.008259499,0.01811633,-0.033255897,-0.0046893023,0.011600435,},
{0.0023997286,0.00087540963,-0.0024611899,0.009599656,0.034724917,0.01464067,-0.03401156,-0.0034263725,0.03209018,-0.03429345,0.02996375,0.0110604055,0.0063534877,0.011750391,-0.008331215,-0.005444243,-0.011874081,0.0018058771,0.022308625,0.030166397,0.021972243,0.015627682,0.02279936,-0.0053392956,0.0056816647,-0.021619642,-0.0051511046,-0.031552672,0.033471562,-0.010352689,-0.01689138,-0.035204835,-0.03607143,0.0022332892,0.030545102,0.020030025,0.030636905,-0.012380851,-0.029020771,-0.0024704984,0.01638108,0.032625362,0.0060554068,0.017958956,0.016661879,0.034015886,0.016436541,0.030529058,-0.03329919,0.02195547,0.025171157,0.019249551,-0.0347526,0.024017256,0.009490832,-0.0233985,0.0025414983,-0.0112434635,-0.015581496,0.0042141685,-0.0074494104,0.001199266,0.030184256,-0.028062379,0.02603644,-0.007959017,0.030123016,0.004619638,0.008240727,0.029672712,-0.028423317,0.029559998,0.005118505,-0.014759054,-0.029742189,-0.00028369998,-0.03589669,-0.0019505126,0.009358085,0.036125377,0.035998974,0.012197166,0.0022264693,-0.009119258,},
{0.0031344437,-0.0052157654,-0.027651554,-0.0026860472,0.019119168,0.026725912,-0.011440239,0.005230871,0.0346232,0.0009492579,0.032555856,-0.00029841933,-0.008805864,0.01693004,0.010123222,-0.019936891,-0.015035297,-0.011222982,-0.01894723,0.030906163,0.023001289,0.03298263,0.03315831,-0.013886527,-0.033762585,-0.027913064,0.011067377,0.0020642485,-0.023432313,0.005547296,0.0040451884,0.020778557,0.035341125,-0.015117587,-0.0061522033,-0.009099835,0.018450344,0.036276694,-0.020111296,-0.03635179,-0.02382005,-0.013653975,-0.019334642,0.013735419,-0.0074086213,0.009254554,-0.032163247,-0.004282792,0.009156371,0.017305417,0.0313812,-0.026736803,-0.024625253,-0.00887039,0.024928477,0.012341025,0.025099477,0.005473062,0.032043442,-0.026450194,0.013614104,-0.02903716,-0.0142535055,0.006109363,0.0010602362,0.01126645,-0.0137949595,-0.017105432,-0.0068281274,-0.004405685,-0.032691948,0.006729462,-0.03452794,-0.010561105,-0.03201115,-0.004125952,0.022750834,0.019331377,-0.021042163,0.03334594,0.028401809,-0.000694381,0.0127159245,0.0066973483,},
{0.0098185465,-0.019580979,-0.018834656,0.002588947,0.024973731,0.028721545,0.012731168,-0.03491948,-0.01298197,0.007852114,0.02084061,0.0056476737,-0.02686551,0.0060649016,-0.0075887004,0.022446055,0.012143205,0.0029804474,-0.01744253,-0.015476721,0.034110826,0.011644845,0.01074392,-0.025687585,-0.015916243,-0.025202075,-0.018204724,-0.0149387,-0.006411316,-0.03394301,0.028026138,-0.020128729,-0.02107941,-0.03185112,0.020505272,0.029177021,-0.028682122,0.029971538,0.020222621,0.024358064,0.034168698,-0.032310136,-0.022607803,0.0149182575,-0.010258992,-0.03601267,0.02011209,0.027568817,-0.00035832,0.015544513,0.009619903,-0.0025484655,0.0026242216,-0.024292426,-0.011692597,0.011484987,-0.022220088,-0.0226677,0.023476137,-0.01655447,0.008184078,0.023292568,-0.027872812,0.0068596345,0.0017749382,-0.016066533,0.0034440358,0.015686022,0.015609231,0.009154615,-0.0107335625,0.011805344,-0.028118946,0.007953979,-0.012798634,-0.00957343,0.016376203,-0.013746748,0.019061716,0.021044573,-0.034630742,0.026572827,0.019386396,-0.0053673773,},
